4.506909102201461792e-02,-7.828164845705032349e-02,4.933493584394454956e-02,-3.828418627381324768e-02,6.266837567090988159e-02,-8.050768077373504639e-02,-7.376436144113540649e-02,-4.261956363916397095e-02,-4.511519148945808411e-02,-3.171123564243316650e-02,1.539754122495651245e-02,-4.490225762128829956e-02,-4.228698462247848511e-02,-3.763376176357269287e-02,-3.351632878184318542e-02,-6.304123252630233765e-02,2.240049839019775391e-02,6.190495938062667847e-02,7.406494766473770142e-02,-1.918102055788040161e-02,3.373558819293975830e-02,6.118715554475784302e-02,-5.958418548107147217e-02,-7.611810415983200073e-02,2.616162598133087158e-02,2.780899405479431152e-02,-6.983255594968795776e-02,-4.507993534207344055e-02,-2.452473342418670654e-02,-2.349178120493888855e-02,-4.749399423599243164e-02,-5.365583300590515137e-02,2.008955180644989014e-02,2.225252240896224976e-02,7.763455063104629517e-02,-7.485258579254150391e-02,-1.620226353406906128e-02,7.364843040704727173e-02,-1.833835244178771973e-02,8.058162778615951538e-02,5.038358271121978760e-03,5.992984026670455933e-02,-7.075652480125427246e-03,-4.175301268696784973e-02,-1.374167948961257935e-02,-6.054235994815826416e-02,8.911125361919403076e-03,-7.790482789278030396e-02,-4.616175964474678040e-02,-2.800377085804939270e-02,-7.403745502233505249e-02,2.367829531431198120e-02,9.952187538146972656e-03,-7.047147303819656372e-02,-7.022131234407424927e-02,-4.507355391979217529e-02,-7.361914962530136108e-02,-4.376638308167457581e-02,5.457103252410888672e-04,9.215451776981353760e-03,4.511430114507675171e-02,9.551398456096649170e-03,5.635381489992141724e-02,4.270660132169723511e-02,-6.005464494228363037e-02,-4.948322847485542297e-02,-7.456347346305847168e-03,-2.194749936461448669e-02,-3.197618946433067322e-02,-1.679822802543640137e-03,6.793505698442459106e-02,-7.660012692213058472e-02,-1.928009092807769775e-02,4.497934132814407349e-02,-2.335372194647789001e-02,-1.018008589744567871e-02,1.747654378414154053e-02,9.088903665542602539e-03,1.844038069248199463e-02,5.622269958257675171e-02,-3.305837884545326233e-02,2.141159772872924805e-02,-1.987899839878082275e-02,-4.397821426391601562e-02,6.003690510988235474e-02,1.814816147089004517e-02,5.672442167997360229e-02,6.805809587240219116e-02,-6.372449547052383423e-02,2.861087769269943237e-02,-5.043801665306091309e-02,5.113258957862854004e-03,-4.326283186674118042e-02,-4.915701225399971008e-02,6.618639081716537476e-02,-5.060069262981414795e-02,3.336678445339202881e-02,-2.912893146276473999e-02,-5.556964874267578125e-02,-4.651532322168350220e-02,-6.012811139225959778e-02,4.573791474103927612e-02,7.530205696821212769e-02,4.027852416038513184e-02,3.167766332626342773e-02,-4.773926362395286560e-02,2.477342635393142700e-02,-6.554625928401947021e-02,6.173431128263473511e-02,3.306174278259277344e-02,4.703194648027420044e-02,-1.449641585350036621e-02,-8.923262357711791992e-04,-1.865198463201522827e-02,5.004539340734481812e-02,2.879995107650756836e-02,-5.425520613789558411e-02,1.367231458425521851e-02,6.824412196874618530e-02,-6.826969236135482788e-02,-3.676153719425201416e-03,-7.881408929824829102e-02,2.830162644386291504e-03,4.018997400999069214e-02,6.618540734052658081e-02,-5.821878463029861450e-02,9.472362697124481201e-03,-6.840279698371887207e-02
5.256520956754684448e-02,-7.841398566961288452e-02,1.234030723571777344e-02,6.219664961099624634e-02,4.629618674516677856e-02,-5.735848098993301392e-02,-1.877632737159729004e-02,2.120792865753173828e-02,-7.379145175218582153e-02,-4.281423985958099365e-02,-5.222512781620025635e-02,4.766113311052322388e-02,2.424359321594238281e-02,-2.479483187198638916e-02,-5.064151436090469360e-02,2.072274684906005859e-02,-6.912343204021453857e-03,-4.920862615108489990e-02,-2.071211114525794983e-02,-3.340760990977287292e-02,5.229733884334564209e-03,-7.213864475488662720e-02,6.682202965021133423e-02,4.315269738435745239e-02,-4.238091036677360535e-02,-1.206953823566436768e-02,1.689745485782623291e-02,-5.912087857723236084e-02,-7.139435410499572754e-02,-7.689796388149261475e-03,-7.475420832633972168e-02,-1.584786921739578247e-02,3.315483778715133667e-02,1.354137063026428223e-02,-2.832879126071929932e-02,6.996516138315200806e-02,1.424139738082885742e-02,6.457988172769546509e-02,6.709168106317520142e-02,5.310053378343582153e-02,3.012815862894058228e-02,2.203632146120071411e-02,-2.812881395220756531e-02,1.841487735509872437e-02,2.703374624252319336e-02,-5.270632356405258179e-02,7.455632090568542480e-03,5.933534353971481323e-02,1.838198304176330566e-02,-6.951831281185150146e-03,-4.692925885319709778e-02,-6.300027668476104736e-02,7.058071345090866089e-02,-7.474283874034881592e-02,3.089519590139389038e-02,2.938638627529144287e-02,-3.454781323671340942e-02,2.818709611892700195e-02,-3.308527916669845581e-02,-1.277482509613037109e-02,-3.219705075025558472e-02,2.610629796981811523e-02,-8.213944733142852783e-03,-8.110269904136657715e-02,-4.499941319227218628e-02,-1.287020742893218994e-03,2.348102629184722900e-02,-2.385031059384346008e-02,7.607004791498184204e-02,-4.368843138217926025e-02,-3.252781927585601807e-03,5.160570889711380005e-02,2.198681235313415527e-02,2.164889872074127197e-02,-7.693417370319366455e-02,1.686864346265792847e-02,4.774611443281173706e-02,-5.543619394302368164e-02,-6.436548382043838501e-02,4.611077159643173218e-02,-4.050449281930923462e-02,-4.944045096635818481e-02,1.819165796041488647e-02,-2.640344947576522827e-02,4.364538192749023438e-02,-3.357813507318496704e-02,4.524748772382736206e-02,-5.170647799968719482e-02,-7.136076688766479492e-02,-7.980707287788391113e-02,2.438947558403015137e-04,-4.198729619383811951e-02,5.023282021284103394e-02,4.976473003625869751e-02,2.418672293424606323e-02,-7.765342295169830322e-02,3.545448184013366699e-03,1.107539236545562744e-02,-6.493079662322998047e-02,7.253012806177139282e-02,-4.683573916554450989e-02,-3.600892052054405212e-02,4.128260910511016846e-02,-7.504335790872573853e-02,-2.109264954924583435e-02,-4.535683989524841309e-02,2.969736605882644653e-02,1.280586421489715576e-02,-7.722774893045425415e-02,6.845448166131973267e-02,6.000367552042007446e-02,-7.983921468257904053e-02,1.416420191526412964e-02,3.230161219835281372e-02,2.800176292657852173e-02,1.089328527450561523e-02,-3.777936100959777832e-02,7.522065192461013794e-02,9.446546435356140137e-03,3.538048267364501953e-02,-5.258683115243911743e-02,7.035499066114425659e-02,-2.188144251704216003e-02,-7.333201169967651367e-02,-8.019670844078063965e-03,-6.466713547706604004e-02,2.280076593160629272e-02,-4.274168610572814941e-02
-2.009841054677963257e-02,-5.622359365224838257e-02,6.292797625064849854e-03,8.155271410942077637e-03,1.067654043436050415e-02,-3.674932569265365601e-02,-7.601463794708251953e-02,-1.602717489004135132e-02,3.488212823867797852e-04,4.395826905965805054e-02,3.079007565975189209e-02,2.580212801694869995e-02,3.207440674304962158e-02,-5.364982038736343384e-02,-7.615598291158676147e-02,6.544185429811477661e-02,-3.377606347203254700e-02,7.190674543380737305e-03,-5.017995089292526245e-02,3.027540445327758789e-02,-1.247944682836532593e-02,1.606941223144531250e-02,-4.136874154210090637e-02,-6.303165853023529053e-02,3.352232277393341064e-02,2.063327282667160034e-02,5.416562408208847046e-02,-4.122693464159965515e-02,-7.839031517505645752e-02,-4.169652611017227173e-02,1.991102099418640137e-02,3.369161486625671387e-02,-1.071954518556594849e-02,-4.632141813635826111e-02,-4.047807678580284119e-02,2.372751384973526001e-02,-3.599261865019798279e-02,5.172619968652725220e-02,3.438542783260345459e-02,2.835534512996673584e-03,-5.466940999031066895e-02,1.030806452035903931e-02,2.963058650493621826e-02,-7.005906105041503906e-02,7.168240845203399658e-03,2.225223183631896973e-02,-5.907198786735534668e-02,-2.691935747861862183e-02,7.192908972501754761e-02,7.954794913530349731e-02,-7.953212410211563110e-02,-7.265169173479080200e-02,2.297706902027130127e-02,3.933325409889221191e-02,1.330292969942092896e-02,-6.414778530597686768e-02,1.708306372165679932e-02,-2.782034873962402344e-02,-8.025257289409637451e-02,-8.338361978530883789e-03,6.654689460992813110e-02,-6.855274736881256104e-02,-1.326108723878860474e-02,1.529356092214584351e-02,7.055451720952987671e-02,-7.034051418304443359e-02,-3.745983541011810303e-02,-7.296864688396453857e-02,-3.151361644268035889e-02,-3.332735598087310791e-02,-7.334168255329132080e-02,-4.487745463848114014e-03,7.428761571645736694e-02,-4.226377606391906738e-02,5.561203509569168091e-02,3.668753802776336670e-02,-2.312644198536872864e-02,-4.906231164932250977e-02,3.314103186130523682e-02,8.695639669895172119e-03,5.675790458917617798e-02,-9.506553411483764648e-03,-5.454417690634727478e-02,1.517172902822494507e-02,3.205485641956329346e-02,-2.907089889049530029e-03,-4.691173881292343140e-02,-3.913333266973495483e-02,7.682495564222335815e-02,7.665648311376571655e-02,2.501366287469863892e-02,1.430945098400115967e-02,1.880086958408355713e-02,7.146388292312622070e-03,-3.521986305713653564e-03,7.835002988576889038e-02,4.583678394556045532e-02,-5.194528400897979736e-02,-7.777824997901916504e-03,1.565290242433547974e-02,7.800922542810440063e-02,-1.054211705923080444e-02,7.683367282152175903e-02,-8.028490841388702393e-02,7.683140784502029419e-02,-6.028730422258377075e-02,1.559916138648986816e-02,9.584158658981323242e-03,2.725906670093536377e-03,-4.380242899060249329e-02,-6.754736602306365967e-02,1.123511046171188354e-02,8.006168156862258911e-02,-7.231054455041885376e-02,4.939674586057662964e-02,1.285709440708160400e-03,-3.913722932338714600e-03,-4.868086427450180054e-02,2.678209543228149414e-02,-2.017278596758842468e-02,1.740994304418563843e-02,-6.421802937984466553e-02,4.777700453996658325e-02,6.980269402265548706e-02,-5.560562014579772949e-02,7.576514035463333130e-02,9.932190179824829102e-03,-4.597969353199005127e-03
6.270299106836318970e-02,5.326897650957107544e-02,3.087566792964935303e-02,-8.076637238264083862e-02,-2.261623740196228027e-04,-4.151554033160209656e-02,-5.525766313076019287e-02,8.030558377504348755e-02,3.311612457036972046e-02,-5.283892899751663208e-02,5.035018175840377808e-02,-1.380525529384613037e-03,-4.197105765342712402e-03,-6.539419293403625488e-03,-7.441853731870651245e-02,-5.741285905241966248e-02,-2.623997628688812256e-03,6.080888211727142334e-03,3.701932728290557861e-03,2.918019890785217285e-02,-6.281141936779022217e-02,-7.702537626028060913e-02,6.778184324502944946e-02,-8.069361746311187744e-02,2.139572054147720337e-02,-6.591453403234481812e-02,3.867505490779876709e-02,3.506322205066680908e-02,3.389100730419158936e-02,1.889169961214065552e-02,-7.103846967220306396e-02,4.337842017412185669e-02,8.030951768159866333e-02,1.110333949327468872e-02,6.577093154191970825e-02,5.760841071605682373e-03,-9.423203766345977783e-03,7.897415012121200562e-02,5.678793042898178101e-02,-6.807048618793487549e-02,2.685496211051940918e-02,4.664643853902816772e-02,8.149951696395874023e-03,-5.364391952753067017e-02,1.070457696914672852e-02,5.191130191087722778e-02,-1.072652637958526611e-02,-2.536661922931671143e-03,-8.619196712970733643e-03,-1.817324757575988770e-02,6.102312356233596802e-02,4.369034618139266968e-02,6.385382264852523804e-02,-7.806906104087829590e-02,-4.959598928689956665e-02,-5.312658846378326416e-03,-6.665175408124923706e-02,-1.474965363740921021e-02,-3.903103247284889221e-02,-1.994648948311805725e-02,5.740960687398910522e-02,-3.326348215341567993e-02,-6.978132575750350952e-02,2.560816705226898193e-03,3.272517770528793335e-02,-6.528420746326446533e-02,-4.345078021287918091e-02,3.051318973302841187e-02,3.493949025869369507e-02,4.171416163444519043e-02,-1.352965831756591797e-03,-5.645275115966796875e-02,5.152495950460433960e-02,-2.345457300543785095e-02,-4.230063408613204956e-02,2.247995883226394653e-02,5.382647365331649780e-02,-6.945936381816864014e-02,-6.933909654617309570e-02,3.406062722206115723e-02,-1.446098834276199341e-02,7.614623755216598511e-02,8.082153648138046265e-02,1.315623521804809570e-02,-6.698305904865264893e-02,-2.319569140672683716e-02,-8.024483919143676758e-03,-1.702019572257995605e-02,6.631914526224136353e-02,-3.495915979146957397e-02,-4.232032224535942078e-02,-4.387632012367248535e-02,-2.026589959859848022e-02,-5.937533080577850342e-02,7.488819211721420288e-02,2.638749778270721436e-03,5.083815008401870728e-02,2.195647358894348145e-02,-5.426978692412376404e-02,-2.098286896944046021e-02,6.873274594545364380e-02,4.717224091291427612e-02,-7.212909311056137085e-02,1.313731819391250610e-02,7.091164588928222656e-03,-6.880489736795425415e-02,3.746958076953887939e-02,-1.088502258062362671e-02,7.554642111063003540e-02,1.067958772182464600e-03,-4.324306920170783997e-02,-4.106812924146652222e-02,6.590131670236587524e-02,6.716229021549224854e-03,4.640512168407440186e-03,-3.530860319733619690e-02,1.942653954029083252e-02,7.105720788240432739e-02,6.721643358469009399e-02,-1.461434364318847656e-02,5.533444136381149292e-02,-2.871321886777877808e-02,1.892273873090744019e-02,-1.956478878855705261e-02,7.507819682359695435e-02,7.878292351961135864e-02,7.236107438802719116e-02,7.839978486299514771e-02
-7.066257297992706299e-02,-6.882506608963012695e-02,1.939780265092849731e-02,-2.013608068227767944e-02,1.193339377641677856e-02,6.129782646894454956e-02,1.425126194953918457e-02,2.907378226518630981e-02,7.556823641061782837e-02,1.076329499483108521e-02,-7.590398937463760376e-02,-6.590728461742401123e-02,4.123066365718841553e-02,-6.719180941581726074e-02,1.505107432603836060e-02,7.142139226198196411e-02,-8.883722126483917236e-03,-3.341689333319664001e-02,-6.943956017494201660e-02,-6.941968202590942383e-02,2.186871320009231567e-02,3.593139350414276123e-02,2.440212666988372803e-02,4.111386090517044067e-02,3.589965403079986572e-03,6.441564112901687622e-02,2.098352462053298950e-02,-1.618023961782455444e-02,-3.482319042086601257e-02,-1.121421903371810913e-02,-7.726202160120010376e-02,-9.596183896064758301e-03,-1.178037375211715698e-02,-2.721252664923667908e-02,2.909321337938308716e-02,-4.073843359947204590e-03,-4.305890947580337524e-02,5.330397933721542358e-02,2.706713974475860596e-02,-7.661335170269012451e-02,-3.186098858714103699e-02,-2.977854385972023010e-02,-2.530281245708465576e-02,6.963291019201278687e-02,1.409728825092315674e-02,-6.126841157674789429e-02,-6.819979846477508545e-02,6.134959310293197632e-02,2.304752171039581299e-02,-6.366007775068283081e-02,-1.528688520193099976e-02,-4.279115051031112671e-02,-3.330339491367340088e-02,7.029560953378677368e-02,2.405375242233276367e-02,-5.809948593378067017e-02,4.154138267040252686e-03,6.820462644100189209e-03,6.166320294141769409e-02,-2.640571445226669312e-02,-2.642584592103958130e-02,-7.424346357583999634e-02,-1.630447804927825928e-03,-7.529392093420028687e-02,2.664662897586822510e-02,5.525916814804077148e-03,-1.198610663414001465e-02,3.976194560527801514e-02,7.137579470872879028e-02,-6.571213901042938232e-02,-1.041719317436218262e-02,1.502504944801330566e-02,3.275880962610244751e-02,4.021643102169036865e-02,5.833900719881057739e-02,1.735392212867736816e-02,-5.718368291854858398e-02,6.804796308279037476e-02,5.789243429899215698e-02,-1.819816976785659790e-02,4.097922891378402710e-02,-5.998026952147483826e-02,7.311577349901199341e-02,5.446680635213851929e-02,-1.695679128170013428e-02,-3.997810557484626770e-02,-7.909954339265823364e-02,6.686330586671829224e-02,-7.990330457687377930e-03,-8.467078208923339844e-03,-2.671818062663078308e-02,-4.622416570782661438e-02,7.160928100347518921e-02,7.071133702993392944e-02,8.063181489706039429e-02,4.748643189668655396e-02,-6.169035658240318298e-02,3.402664512395858765e-02,2.536854147911071777e-02,-7.133061438798904419e-02,2.374961972236633301e-02,7.302520424127578735e-02,4.125474393367767334e-02,-5.896478891372680664e-03,-4.795194417238235474e-02,-2.892415970563888550e-02,2.585497498512268066e-02,-6.702741980552673340e-02,-3.423393517732620239e-02,6.608092039823532104e-02,3.589321672916412354e-02,3.812197595834732056e-02,7.181417196989059448e-02,1.833586394786834717e-02,-9.036339819431304932e-03,-3.973036259412765503e-02,-7.536786794662475586e-02,5.329329520463943481e-02,-7.097419351339340210e-02,-3.908506408333778381e-02,5.701318383216857910e-03,4.247486591339111328e-03,-7.322033494710922241e-02,6.497336179018020630e-02,2.038937807083129883e-02,5.142062157392501831e-02,-5.635166913270950317e-02,7.874865084886550903e-02
-3.961901366710662842e-02,-2.855294197797775269e-02,6.072460860013961792e-02,5.440091341733932495e-02,4.652658849954605103e-02,-2.419209852814674377e-02,3.871647268533706665e-02,3.050965070724487305e-02,7.711777836084365845e-02,-7.324330508708953857e-02,9.905330836772918701e-03,2.604710310697555542e-02,-7.342760264873504639e-02,2.459055930376052856e-02,3.654940426349639893e-02,-5.076450854539871216e-02,-1.784727722406387329e-02,-1.623579859733581543e-02,-4.770429804921150208e-02,-1.300258934497833252e-02,1.325836032629013062e-02,-2.638825029134750366e-02,-7.480363547801971436e-02,9.195402264595031738e-03,-3.586016967892646790e-02,-8.222647011280059814e-03,-5.949698388576507568e-03,6.890634447336196899e-02,-4.857312887907028198e-02,7.100649923086166382e-02,6.892194598913192749e-02,5.384504050016403198e-02,3.469747304916381836e-02,-7.432116568088531494e-02,7.219756394624710083e-02,-1.333227008581161499e-02,-3.953336551785469055e-02,2.384278923273086548e-02,-5.029800906777381897e-02,-2.525738626718521118e-02,2.532377094030380249e-02,2.760753035545349121e-03,-3.293505683541297913e-02,6.029777228832244873e-03,-1.245885342359542847e-02,-3.409146890044212341e-02,6.061606854200363159e-02,5.035712569952011108e-02,4.824576526880264282e-02,1.871176064014434814e-03,2.222280204296112061e-02,3.543318063020706177e-02,2.711879462003707886e-02,-5.685268715023994446e-02,1.237440109252929688e-02,-2.328544855117797852e-03,1.536172628402709961e-02,7.175000756978988647e-02,-2.770027890801429749e-02,6.501110643148422241e-02,-3.407420217990875244e-02,-4.541700333356857300e-02,4.753116518259048462e-02,6.857745349407196045e-03,5.022322386503219604e-02,-1.293768733739852905e-02,2.998284995555877686e-03,-7.935293763875961304e-02,4.544324427843093872e-02,1.530814170837402344e-02,5.740731209516525269e-02,-2.664233744144439697e-02,-3.032150492072105408e-02,5.159427970647811890e-02,6.753402203321456909e-02,-3.807036206126213074e-02,4.340889304876327515e-02,-7.826681435108184814e-02,1.457370817661285400e-02,-4.463337734341621399e-02,5.709403008222579956e-02,-6.224865466356277466e-02,2.236754447221755981e-02,6.140356510877609253e-02,1.520978659391403198e-02,-7.745874673128128052e-02,8.939132094383239746e-03,-4.035483673214912415e-02,-6.746591627597808838e-02,-5.250990390777587891e-02,7.830254733562469482e-03,-5.131384730339050293e-02,-1.466798782348632812e-02,-3.073499724268913269e-02,-7.843666523694992065e-02,-2.825039252638816833e-02,-7.999040186405181885e-02,-1.896454766392707825e-02,4.768387228250503540e-02,3.776647895574569702e-02,6.883291155099868774e-02,8.076871186494827271e-02,-2.166984230279922485e-02,9.022377431392669678e-03,-4.657559841871261597e-02,-5.055596306920051575e-02,-1.682008802890777588e-02,7.843732833862304688e-03,-6.974326819181442261e-02,-7.634080201387405396e-02,-7.374637573957443237e-02,-6.836728751659393311e-02,3.922946006059646606e-02,3.447637706995010376e-02,6.911943107843399048e-02,-4.441090673208236694e-02,8.005484193563461304e-02,-2.300559729337692261e-02,2.122357487678527832e-02,6.815982609987258911e-02,5.906224250793457031e-03,4.862178117036819458e-02,4.597809165716171265e-02,7.127756625413894653e-02,-7.775897532701492310e-02,-4.492234811186790466e-02,-4.765653237700462341e-02,6.625705212354660034e-02
8.419506251811981201e-03,5.943707376718521118e-02,5.772692710161209106e-02,-7.576171308755874634e-02,-4.453445971012115479e-02,-6.006719544529914856e-02,3.781291097402572632e-02,1.737184822559356689e-02,5.022377520799636841e-02,5.858901888132095337e-02,-3.697409480810165405e-02,-8.035817742347717285e-02,-6.331375241279602051e-02,9.296327829360961914e-03,-2.252030000090599060e-02,2.186440676450729370e-02,-3.726463392376899719e-02,2.319902181625366211e-03,4.745813459157943726e-02,-4.026698321104049683e-02,3.760595619678497314e-02,-5.492381006479263306e-02,4.259216040372848511e-02,5.776479095220565796e-02,2.483607828617095947e-02,-4.266740754246711731e-02,-8.100511878728866577e-02,2.910048514604568481e-02,-5.248081684112548828e-02,2.955507487058639526e-02,2.826524525880813599e-02,7.862318307161331177e-02,4.120369255542755127e-02,2.222287654876708984e-02,5.438218265771865845e-02,-5.736143887042999268e-02,3.273728489875793457e-02,-2.001463621854782104e-02,-5.844281613826751709e-02,-4.015309736132621765e-02,-3.232422098517417908e-02,4.396940022706985474e-02,-1.812251657247543335e-02,1.176412403583526611e-02,2.861459553241729736e-02,-5.295839905738830566e-02,-3.391881659626960754e-02,-1.172337681055068970e-02,-6.838016957044601440e-02,5.977839231491088867e-03,2.654922008514404297e-02,3.152099996805191040e-02,7.638243585824966431e-02,6.501945108175277710e-02,1.867203414440155029e-02,-6.229318678379058838e-02,-7.776492834091186523e-02,5.221412330865859985e-02,-6.856761872768402100e-02,-3.652617335319519043e-03,-2.397342026233673096e-02,5.956164747476577759e-02,-4.117056354880332947e-02,-6.371623277664184570e-02,3.817071020603179932e-02,-2.687217295169830322e-02,-7.940379530191421509e-02,7.222337275743484497e-02,-5.494086444377899170e-02,8.681714534759521484e-04,1.851856708526611328e-02,6.012187153100967407e-02,-7.593184709548950195e-03,-1.194819808006286621e-03,9.586147964000701904e-03,7.132444530725479126e-02,-7.663168013095855713e-03,-2.076059579849243164e-03,1.331754028797149658e-03,-7.608934491872787476e-02,3.510228544473648071e-02,-7.717627286911010742e-02,2.688700705766677856e-02,-7.652126252651214600e-03,-8.078344911336898804e-02,7.734846323728561401e-02,-9.601101279258728027e-03,-9.516999125480651855e-03,-7.232011854648590088e-02,-6.839402019977569580e-02,5.097835510969161987e-02,-3.151611238718032837e-02,-1.700782030820846558e-02,-7.221727818250656128e-02,4.788746684789657593e-02,2.558924257755279541e-03,-6.542400270700454712e-02,8.052667230367660522e-02,-6.036945432424545288e-02,4.054727405309677124e-02,4.573588818311691284e-02,5.283024162054061890e-02,1.581154763698577881e-03,-2.503868937492370605e-02,6.174299865961074829e-02,-8.072055876255035400e-02,-1.423157751560211182e-02,-2.527670562267303467e-02,3.718201816082000732e-02,6.402965635061264038e-02,-5.070009082555770874e-02,-1.833654940128326416e-03,-3.690049424767494202e-02,-5.482809990644454956e-02,3.521367907524108887e-03,-4.175322502851486206e-02,-2.643025293946266174e-02,-7.776976376771926880e-02,-9.596534073352813721e-03,6.004134565591812134e-02,5.989957600831985474e-02,-7.348176836967468262e-02,2.851457148790359497e-02,-4.558697342872619629e-03,7.171622663736343384e-02,-5.062550306320190430e-02,5.482927709817886353e-02,-2.046405896544456482e-02
4.195834696292877197e-02,1.626490056514739990e-02,-4.453092068433761597e-02,-5.709184333682060242e-02,5.526375025510787964e-02,-5.347749590873718262e-02,6.849549710750579834e-03,6.520659476518630981e-02,1.714210957288742065e-02,-1.816276460886001587e-02,3.237643092870712280e-02,7.202091068029403687e-02,2.324840426445007324e-02,-7.588014006614685059e-02,9.544417262077331543e-03,8.065328001976013184e-03,-1.670219749212265015e-02,-1.321312785148620605e-02,-1.292467862367630005e-02,7.668330520391464233e-02,7.366428524255752563e-02,1.635670661926269531e-03,-4.433701559901237488e-02,-6.869826465845108032e-02,7.840589433908462524e-02,-1.293767243623733521e-02,-1.787949353456497192e-02,5.417704582214355469e-03,-5.745863169431686401e-02,-4.202717170119285583e-02,-3.038638830184936523e-02,-7.519065588712692261e-02,-2.167761698365211487e-02,4.531137645244598389e-03,5.076492577791213989e-02,3.825767338275909424e-02,3.127849847078323364e-02,-2.350307255983352661e-02,2.854706346988677979e-02,6.564848124980926514e-03,5.197306722402572632e-02,1.837497949600219727e-02,4.648319631814956665e-02,-3.128530830144882202e-02,5.043958872556686401e-02,6.495025008916854858e-02,6.655596941709518433e-02,-4.223442077636718750e-02,4.802032560110092163e-02,-5.011417716741561890e-02,-4.817029461264610291e-02,-7.217445969581604004e-02,-1.547628641128540039e-02,1.980230212211608887e-02,2.267514169216156006e-02,-7.595624029636383057e-02,-7.754370570182800293e-03,5.298212170600891113e-03,9.201243519783020020e-03,-6.739484518766403198e-02,-2.271679788827896118e-02,4.531218856573104858e-02,-5.467979609966278076e-02,5.552164465188980103e-02,3.834313154220581055e-02,-5.145753175020217896e-02,7.515255361795425415e-02,5.060625821352005005e-02,-9.083934128284454346e-03,6.470008939504623413e-02,-4.379531368613243103e-02,5.553797632455825806e-02,-5.635917186737060547e-03,-1.261766254901885986e-02,-4.741184413433074951e-02,5.711507052183151245e-02,-2.721150219440460205e-02,-2.846145257353782654e-02,1.416478306055068970e-02,-4.497454315423965454e-02,1.095404475927352905e-02,-5.546323955059051514e-03,-3.227167576551437378e-02,-7.487691938877105713e-03,6.653653830289840698e-02,7.529117912054061890e-02,-6.313052028417587280e-02,1.244284212589263916e-02,2.568451315164566040e-02,8.880920708179473877e-03,4.260703176259994507e-02,2.033369988203048706e-02,7.099571079015731812e-02,2.313481271266937256e-02,5.244761705398559570e-04,-3.656878322362899780e-02,-4.972967505455017090e-02,3.780687600374221802e-02,2.916602045297622681e-02,3.937767446041107178e-02,5.191438645124435425e-02,6.134057790040969849e-02,8.070578426122665405e-02,-5.538405850529670715e-02,7.437170296907424927e-02,-4.683749750256538391e-02,7.453387230634689331e-02,-2.602412924170494080e-02,-6.072019040584564209e-02,7.953353971242904663e-02,-2.348818257451057434e-02,1.086793839931488037e-03,3.200873732566833496e-02,-7.905048131942749023e-02,8.203342556953430176e-03,-7.785541564226150513e-02,2.398484945297241211e-02,-6.284378468990325928e-02,-2.542499080300331116e-02,2.800804376602172852e-02,1.895528286695480347e-02,3.215535730123519897e-02,7.543834298849105835e-02,-3.574011847376823425e-02,4.520232230424880981e-02,-7.746355980634689331e-02,-1.895077526569366455e-03,-3.876116499304771423e-02
4.709411412477493286e-02,-3.063589334487915039e-03,-5.376113206148147583e-02,-1.418783515691757202e-02,6.247850507497787476e-02,3.126420825719833374e-02,-3.895220905542373657e-02,-4.248487204313278198e-02,-4.678335040807723999e-02,6.340283900499343872e-02,-8.080866187810897827e-02,3.238625824451446533e-03,2.568949759006500244e-02,-7.716715335845947266e-03,4.872667044401168823e-02,-4.808027297258377075e-02,2.254278957843780518e-02,6.304449588060379028e-02,6.660779565572738647e-02,-5.553938448429107666e-02,-7.793387025594711304e-02,-1.139932870864868164e-02,4.014132171869277954e-02,5.569461733102798462e-02,1.301310956478118896e-02,4.403299838304519653e-02,5.753450095653533936e-03,-6.698645651340484619e-02,9.661376476287841797e-03,6.400140374898910522e-02,4.246135801076889038e-02,7.197933644056320190e-02,1.114125549793243408e-02,3.263644874095916748e-03,-2.449897676706314087e-02,-2.609264478087425232e-02,-6.950034201145172119e-02,1.105916500091552734e-02,8.040904998779296875e-03,7.756799459457397461e-04,-9.818032383918762207e-03,5.328164249658584595e-02,7.584127038717269897e-02,2.165990322828292847e-02,1.308158040046691895e-03,-5.293292924761772156e-02,-3.393925726413726807e-02,1.295959949493408203e-02,-4.025085270404815674e-02,9.632214903831481934e-03,5.338240414857864380e-02,3.440324217081069946e-02,-4.736334457993507385e-02,7.657777518033981323e-02,-5.856093764305114746e-02,-1.710157096385955811e-02,2.144834399223327637e-02,5.357382446527481079e-02,3.088714927434921265e-02,4.588802903890609741e-02,-4.620730876922607422e-03,-7.479963451623916626e-02,-5.667340010404586792e-02,4.251968115568161011e-02,3.425046801567077637e-03,-3.346341848373413086e-02,-7.786902785301208496e-02,-8.284084498882293701e-03,6.745479255914688110e-02,2.706336975097656250e-02,1.797862350940704346e-02,5.424418300390243530e-02,-8.045341819524765015e-02,6.585971266031265259e-02,8.091782778501510620e-02,-4.183763638138771057e-02,-4.542667046189308167e-02,7.946818321943283081e-02,4.778183251619338989e-02,-2.727612853050231934e-03,4.942228645086288452e-02,-6.714446842670440674e-02,3.071527183055877686e-02,-7.487263530492782593e-02,6.717226654291152954e-02,5.322716385126113892e-02,8.053181320428848267e-02,-3.974886983633041382e-02,-1.469983160495758057e-02,-7.404148578643798828e-03,-2.626220509409904480e-02,-3.935429081320762634e-02,-2.347787469625473022e-02,-7.698878645896911621e-02,2.233222126960754395e-03,9.945452213287353516e-03,7.410071045160293579e-02,-5.424588918685913086e-03,7.796265929937362671e-02,7.088819891214370728e-02,-2.307074517011642456e-02,3.740495443344116211e-02,-6.606172025203704834e-02,-6.944246590137481689e-02,-7.774412631988525391e-02,-3.984134644269943237e-02,-6.147419288754463196e-02,5.724781006574630737e-02,-7.071716338396072388e-02,-6.773868203163146973e-02,4.381418228149414062e-03,-3.065221011638641357e-02,6.520918756723403931e-02,-9.034641087055206299e-03,-7.065667212009429932e-02,7.838182151317596436e-03,-2.062822133302688599e-02,-2.567892149090766907e-02,3.195893764495849609e-02,-4.030562937259674072e-03,-1.799312978982925415e-02,-5.865592509508132935e-02,7.328756898641586304e-02,6.244882196187973022e-02,-3.791867196559906006e-02,7.903949171304702759e-02,-4.372281208634376526e-02,-2.267859876155853271e-03
-6.175858154892921448e-02,-4.697270691394805908e-03,5.292855948209762573e-02,-1.753035932779312134e-02,-6.356738507747650146e-02,1.932319998741149902e-02,-7.847290486097335815e-02,-2.621461078524589539e-02,-2.720955014228820801e-02,-5.254529416561126709e-02,8.762262761592864990e-03,5.534420162439346313e-02,4.104865342378616333e-02,6.062736362218856812e-02,6.059736013412475586e-03,-3.145359084010124207e-02,-7.836817204952239990e-02,5.480980128049850464e-02,-7.384373992681503296e-02,-4.507750272750854492e-04,4.153408855199813843e-02,5.320988595485687256e-03,5.214184522628784180e-03,7.950963824987411499e-02,-1.444472372531890869e-02,5.023754388093948364e-02,-6.538122892379760742e-03,-2.299264073371887207e-02,2.899461239576339722e-02,4.270395636558532715e-02,-1.227065175771713257e-02,3.693038970232009888e-02,6.852146238088607788e-02,-4.076223447918891907e-02,2.778407186269760132e-02,-4.121161997318267822e-02,2.372819185256958008e-02,6.855780631303787231e-02,-2.822005376219749451e-02,6.441230326890945435e-02,3.233833611011505127e-02,-7.025349140167236328e-02,-9.945355355739593506e-03,5.089310556650161743e-02,-6.548002362251281738e-02,4.116655886173248291e-02,2.381488680839538574e-03,1.042411476373672485e-02,-6.901152431964874268e-02,-3.816125169396400452e-02,5.129515379667282104e-02,-2.434952929615974426e-02,-5.185369774699211121e-02,-2.951291576027870178e-02,-5.913911014795303345e-02,-6.992727518081665039e-03,-7.920155674219131470e-02,1.114990562200546265e-02,1.001037657260894775e-02,6.577690690755844116e-02,-6.783666461706161499e-02,5.469224601984024048e-02,1.317446678876876831e-02,-1.277077943086624146e-02,6.399644166231155396e-02,-5.740284174680709839e-02,-3.870798647403717041e-02,-9.574525058269500732e-03,1.726093888282775879e-02,5.454108864068984985e-02,4.503191262483596802e-02,-8.027041703462600708e-02,6.247978657484054565e-02,-3.754101693630218506e-02,7.263696938753128052e-02,2.713942527770996094e-02,9.306497871875762939e-03,7.807277143001556396e-03,-1.163505017757415771e-03,-1.403279602527618408e-02,5.941503494977951050e-02,-3.105476498603820801e-03,-7.268068194389343262e-02,7.780341058969497681e-02,7.813050597906112671e-02,3.751670569181442261e-02,-6.014288589358329773e-02,-6.327924877405166626e-02,6.762535125017166138e-02,1.573383808135986328e-03,4.711333662271499634e-02,6.721616536378860474e-02,4.967968910932540894e-02,-5.222990363836288452e-02,-3.218233585357666016e-02,2.163795381784439087e-02,-2.716392278671264648e-03,7.876414805650711060e-02,-9.350068867206573486e-03,1.576187461614608765e-02,1.663569360971450806e-02,-3.133603185415267944e-02,2.339715510606765747e-02,4.062570631504058838e-03,-6.683082133531570435e-02,1.560577750205993652e-02,-5.720835924148559570e-02,-7.965851575136184692e-02,-3.966107219457626343e-02,4.459125548601150513e-02,1.184201985597610474e-02,-2.304427325725555420e-03,1.050081104040145874e-02,3.912625461816787720e-02,-7.480615377426147461e-02,6.241785734891891479e-02,-5.445895344018936157e-02,7.505774497985839844e-03,1.408769935369491577e-02,-7.549180835485458374e-02,4.626417905092239380e-02,4.267005622386932373e-02,-1.562577486038208008e-02,1.994563639163970947e-02,4.898939281702041626e-02,5.528994649648666382e-02,-4.019426926970481873e-02,-7.659558206796646118e-02
7.852106541395187378e-02,3.978851437568664551e-02,-7.949665933847427368e-02,6.271136552095413208e-02,7.571924477815628052e-02,-6.116479635238647461e-04,-5.316448584198951721e-02,7.190756499767303467e-03,-7.263503968715667725e-03,-4.965849220752716064e-02,-5.185516923666000366e-02,-4.992185905575752258e-02,-6.191439181566238403e-02,-4.377040639519691467e-02,5.027029663324356079e-02,2.985414117574691772e-02,-8.092688024044036865e-02,-8.404113352298736572e-03,6.559703499078750610e-02,-7.599286735057830811e-02,-4.151907935738563538e-02,-4.286218062043190002e-02,-1.373711228370666504e-02,-4.477709531784057617e-03,-6.795188784599304199e-02,-2.432858571410179138e-02,7.155127078294754028e-02,-1.852603256702423096e-02,2.306714653968811035e-03,7.902426272630691528e-02,6.633404642343521118e-02,2.596601843833923340e-02,2.175160497426986694e-02,-6.120896711945533752e-02,-2.283301949501037598e-02,7.746627181768417358e-02,7.539295405149459839e-02,-3.760330379009246826e-03,-5.295238643884658813e-02,4.233872890472412109e-02,5.984697490930557251e-02,1.717163622379302979e-02,3.803451359272003174e-02,-5.381349846720695496e-02,4.594027996063232422e-03,-1.066468656063079834e-02,-2.243447676301002502e-02,-4.902090877294540405e-02,-3.309063613414764404e-02,-1.093000173568725586e-04,-4.067857936024665833e-02,-3.273044154047966003e-02,-2.379960566759109497e-02,1.421600580215454102e-03,-8.936055004596710205e-03,-5.178257822990417480e-03,5.591464787721633911e-02,4.844490438699722290e-02,5.034328252077102661e-02,-1.539092510938644409e-02,-6.218369305133819580e-02,3.837569802999496460e-02,8.098087459802627563e-02,-5.179258808493614197e-02,1.355893164873123169e-02,6.283847242593765259e-02,-5.184611678123474121e-02,1.617952436208724976e-02,-6.082195043563842773e-02,-3.525817021727561951e-02,5.301804095506668091e-02,-6.589363515377044678e-02,6.907322257757186890e-02,7.123210281133651733e-02,6.471858173608779907e-02,2.092576026916503906e-02,4.533184319734573364e-02,-3.304327651858329773e-02,-1.247566193342208862e-02,7.005540281534194946e-02,-4.734992980957031250e-04,-1.042535156011581421e-02,-6.894417107105255127e-02,-1.869551464915275574e-02,4.910788685083389282e-02,-5.727054923772811890e-02,4.975663870573043823e-02,-5.138981342315673828e-02,1.182159781455993652e-02,3.498234599828720093e-02,5.635447800159454346e-03,-1.830282807350158691e-02,1.567390561103820801e-02,6.476364284753799438e-02,-6.872027367353439331e-02,2.521537244319915771e-03,-1.385312527418136597e-02,6.440155208110809326e-03,7.171759754419326782e-02,-5.287504941225051880e-02,-4.496475681662559509e-02,5.256690829992294312e-02,2.067581564188003540e-02,-6.494745612144470215e-04,6.971482187509536743e-02,1.818902790546417236e-03,-7.432015985250473022e-02,1.463487744331359863e-02,1.774775981903076172e-02,9.670190513134002686e-03,-5.744040012359619141e-02,-1.425617188215255737e-02,-5.404492095112800598e-02,4.319261759519577026e-02,5.826976150274276733e-02,-6.146634370088577271e-02,-1.874474808573722839e-02,5.749570578336715698e-02,-3.529410064220428467e-02,-1.718279719352722168e-02,4.832199960947036743e-02,2.739074826240539551e-02,-3.046681359410285950e-02,-3.196694329380989075e-02,-5.233877897262573242e-02,-4.680069535970687866e-02,-1.091547310352325439e-03,2.269763499498367310e-02
3.257632255554199219e-03,-7.612709701061248779e-02,2.353490144014358521e-02,-7.706761360168457031e-02,-5.197380855679512024e-02,2.581881731748580933e-02,-3.669662773609161377e-02,9.865015745162963867e-04,4.409812390804290771e-03,6.686445325613021851e-02,7.801824063062667847e-02,-4.210533946752548218e-02,-8.145198225975036621e-03,-7.922162860631942749e-02,-4.928582161664962769e-02,4.225368052721023560e-02,-6.510725617408752441e-02,9.914532303810119629e-03,-5.986263602972030640e-02,-6.007789075374603271e-02,9.653314948081970215e-03,2.747715264558792114e-02,-1.682492345571517944e-02,-3.664627298712730408e-02,4.570036381483078003e-02,-2.380198612809181213e-02,-1.876875758171081543e-03,2.175405621528625488e-02,2.037968486547470093e-02,1.143131405115127563e-02,-4.174933955073356628e-02,-2.775446325540542603e-02,-4.432920366525650024e-02,-6.586582213640213013e-02,-3.309179469943046570e-02,3.974645584821701050e-02,-7.837627083063125610e-02,7.989815622568130493e-02,-5.723096430301666260e-02,-6.866842508316040039e-02,-2.180029824376106262e-02,5.034720152616500854e-02,7.631108164787292480e-04,5.515450984239578247e-02,-2.580978348851203918e-02,-2.750105410814285278e-02,-7.675024867057800293e-02,-6.426206231117248535e-02,1.955220103263854980e-02,-2.371349185705184937e-02,-9.851008653640747070e-03,-6.005203723907470703e-02,-4.249262809753417969e-02,-4.814679548144340515e-02,-6.373186409473419189e-02,-2.462096139788627625e-02,3.894669562578201294e-02,3.261084854602813721e-02,-7.657210528850555420e-02,3.557941317558288574e-02,-5.719466507434844971e-02,4.150066524744033813e-02,-3.130474314093589783e-02,6.881672888994216919e-02,-2.269626036286354065e-02,5.825597792863845825e-02,-3.437498956918716431e-02,6.708032637834548950e-02,5.605915933847427368e-02,-1.377604901790618896e-03,5.744453519582748413e-02,-1.341118663549423218e-02,-7.904860377311706543e-02,3.684667497873306274e-02,2.123981714248657227e-02,4.989213496446609497e-02,-3.376420587301254272e-02,1.412639766931533813e-02,-8.104097098112106323e-02,-5.062529072165489197e-02,-2.856448665261268616e-02,4.209770262241363525e-02,6.507163494825363159e-02,7.630646973848342896e-02,4.489713162183761597e-02,-4.857202619314193726e-02,2.645602822303771973e-02,-5.105744302272796631e-02,-4.627618566155433655e-02,-6.428882479667663574e-03,-4.377169907093048096e-02,-4.220008850097656250e-04,2.605836093425750732e-02,-5.576490610837936401e-02,-4.639687389135360718e-02,-2.519382163882255554e-02,3.656625002622604370e-02,-3.396750986576080322e-02,1.195339113473892212e-02,-7.299796491861343384e-02,4.486054927110671997e-02,-7.063103467226028442e-02,4.577540606260299683e-02,3.744467347860336304e-02,-1.208489388227462769e-02,-7.042592763900756836e-02,5.152974277734756470e-02,4.601635783910751343e-02,-4.941206425428390503e-02,6.196776777505874634e-02,-4.346097260713577271e-02,6.370190531015396118e-02,3.380593657493591309e-02,-4.208751022815704346e-03,-2.445552498102188110e-02,-4.448971152305603027e-02,-4.514208808541297913e-02,-6.626738607883453369e-02,4.775985330343246460e-02,-7.138489931821823120e-02,-4.541091248393058777e-02,1.091780513525009155e-02,7.968940585851669312e-02,-2.861573174595832825e-02,2.605990320444107056e-02,2.230266481637954712e-02,2.272758632898330688e-02,1.603272557258605957e-02
-6.789698451757431030e-02,8.102347701787948608e-02,-3.551753237843513489e-02,-4.241524264216423035e-02,-5.439998582005500793e-02,1.082980260252952576e-01,-6.674844026565551758e-02,6.164250522851943970e-02,-1.039259880781173706e-01,-4.435211047530174255e-02,-1.274939905852079391e-02,-6.462997943162918091e-02,3.702431917190551758e-03,-7.550559937953948975e-02,-4.052187874913215637e-02,-7.997201383113861084e-02,-3.232262283563613892e-02,1.187480892986059189e-02,3.449413552880287170e-02,-3.344190493226051331e-02,3.249967843294143677e-02,5.130058899521827698e-02,-1.494643650949001312e-02,-8.603405207395553589e-02,7.157716155052185059e-02,-7.715416140854358673e-03,-5.979864671826362610e-02,6.926851719617843628e-02,5.063772201538085938e-02,-2.780799195170402527e-02,3.563711047172546387e-02,-3.170112147927284241e-02,2.927029505372047424e-02,1.360252499580383301e-04,7.520785182714462280e-02,-4.507029894739389420e-03,8.319115638732910156e-02,8.103000372648239136e-02,3.922850638628005981e-02,-2.357690967619419098e-02,2.794106118381023407e-02,2.015048079192638397e-02,-4.173176828771829605e-03,-4.896558076143264771e-02,-7.682224735617637634e-03,8.153709024190902710e-02,1.531181205064058304e-02,-6.287444382905960083e-02,4.480921104550361633e-02,3.780753910541534424e-02,2.052073553204536438e-02,-1.553798560053110123e-03,7.430695742368698120e-02,6.516095250844955444e-02,-5.228193476796150208e-02,1.018910109996795654e-01,-7.528965827077627182e-03,-8.750687539577484131e-02,-5.455895792692899704e-03,-1.814984530210494995e-02,-3.204793110489845276e-02,1.002624705433845520e-01,-1.151987984776496887e-01,1.502193510532379150e-02,1.362673789262771606e-01,-2.462687157094478607e-02,7.420706748962402344e-02,7.370568066835403442e-02,8.703492581844329834e-03,2.753809839487075806e-02,6.901282817125320435e-02,-3.125528246164321899e-02,1.911333575844764709e-02,-7.495581358671188354e-02,1.896758750081062317e-02,-7.050896435976028442e-02,-4.490680247545242310e-02,-1.588764600455760956e-02,4.209955781698226929e-02,1.766247488558292389e-02,8.367957919836044312e-02,-8.551789447665214539e-03,4.201951622962951660e-02,6.129217892885208130e-02,1.438280940055847168e-02,-8.045562356710433960e-02,1.642156392335891724e-02,7.340567559003829956e-02,-4.609627183526754379e-03,1.432239776477217674e-03,2.857694029808044434e-02,5.379578471183776855e-02,3.032533265650272369e-02,4.214910417795181274e-02,8.964692056179046631e-02,8.078608661890029907e-02,1.987913250923156738e-02,-7.712868507951498032e-03,-4.382975399494171143e-02,8.777487277984619141e-02,3.752571716904640198e-02,-3.145034611225128174e-02,8.712450414896011353e-02,2.040054462850093842e-02,-5.976214259862899780e-02,2.245020307600498199e-02,1.946968585252761841e-02,-2.952642738819122314e-03,6.795988976955413818e-02,6.573913246393203735e-02,1.722245477139949799e-02,-4.739115014672279358e-02,-2.027640119194984436e-02,-5.584524944424629211e-02,-3.333978354930877686e-02,3.434852510690689087e-02,1.123616695404052734e-01,5.591922998428344727e-02,8.836319320835173130e-04,5.253775417804718018e-02,5.178131908178329468e-02,-1.467289496213197708e-02,7.809360325336456299e-02,7.640282064676284790e-02,3.199101984500885010e-02,-8.861699700355529785e-02,2.640471607446670532e-02,5.049128830432891846e-02
2.392838150262832642e-02,-2.025893703103065491e-02,-1.496830373071134090e-03,1.321522239595651627e-02,4.578092321753501892e-02,1.067620981484651566e-02,2.894985675811767578e-02,-6.751301884651184082e-02,-7.857555150985717773e-02,7.020796835422515869e-02,6.409788876771926880e-02,-1.755666173994541168e-02,-1.863877475261688232e-02,-5.812907591462135315e-02,3.710141777992248535e-02,4.535100609064102173e-02,1.236033346503973007e-02,2.460027672350406647e-02,-3.558600321412086487e-02,2.057337202131748199e-02,-4.157042130827903748e-02,-7.655126601457595825e-02,6.868025660514831543e-02,-3.181776497513055801e-03,1.085681095719337463e-02,1.488169096410274506e-02,-2.281674416735768318e-03,2.363581955432891846e-02,2.982018515467643738e-02,-3.032784909009933472e-02,3.072060458362102509e-02,5.888564512133598328e-03,1.062737032771110535e-01,4.405444115400314331e-02,5.392040312290191650e-02,-4.335529729723930359e-02,5.189658328890800476e-02,8.095198869705200195e-02,-6.731938570737838745e-02,1.880234666168689728e-02,5.736892670392990112e-02,-4.251281172037124634e-02,1.030180901288986206e-01,2.778065577149391174e-02,6.224416941404342651e-02,5.965189263224601746e-02,3.342533484101295471e-02,-1.751148328185081482e-02,6.901782471686601639e-03,-2.484093047678470612e-02,-2.086032740771770477e-02,-8.272317796945571899e-02,-5.022744089365005493e-02,7.300598919391632080e-02,9.990934282541275024e-03,4.884020239114761353e-02,3.762243315577507019e-02,-4.483237862586975098e-02,-3.554517775774002075e-02,6.145869940519332886e-02,-4.075871780514717102e-02,2.006448619067668915e-02,-2.025016397237777710e-02,8.082910627126693726e-02,6.004758179187774658e-02,-5.374603904783725739e-03,7.726309355348348618e-03,-4.731724038720130920e-02,1.740542054176330566e-02,5.321260541677474976e-02,-4.370852932333946228e-02,6.241984665393829346e-02,-2.092416863888502121e-03,5.220918916165828705e-03,-6.419547647237777710e-02,-3.792258212342858315e-04,-3.447060286998748779e-02,4.845401644706726074e-02,-4.752244055271148682e-02,3.642443940043449402e-02,3.903074935078620911e-02,2.155107818543910980e-02,4.378792643547058105e-02,-1.301657408475875854e-02,4.660033620893955231e-03,-6.992566585540771484e-02,-4.616945609450340271e-02,-2.351776883006095886e-02,-2.522231079638004303e-02,2.814200893044471741e-02,-3.531912341713905334e-02,2.012661471962928772e-02,1.780475606210529804e-03,-6.920736283063888550e-02,-3.316267207264900208e-02,-2.447697333991527557e-02,-7.940957695245742798e-02,-3.073316253721714020e-02,-4.038465023040771484e-02,-1.668677665293216705e-02,-9.904915839433670044e-02,-1.080072764307260513e-02,-3.241202607750892639e-02,8.184691891074180603e-03,4.152556881308555603e-02,-5.727278534322977066e-03,-3.746459260582923889e-02,-2.797175571322441101e-02,1.450942829251289368e-02,-3.561232937499880791e-03,7.332827150821685791e-02,-9.887953288853168488e-03,-2.416382357478141785e-02,5.186237394809722900e-02,1.119344010949134827e-01,3.497984632849693298e-02,3.616680949926376343e-02,-9.096371009945869446e-03,-6.498254090547561646e-02,-8.406640589237213135e-02,6.854396313428878784e-02,2.218028903007507324e-02,3.079979680478572845e-02,3.981334716081619263e-02,5.715124309062957764e-03,2.205328084528446198e-02,7.952138036489486694e-02,9.050202369689941406e-02
-6.739690899848937988e-03,-1.842556893825531006e-02,4.462351649999618530e-02,-5.524505674839019775e-02,3.610385209321975708e-02,-6.228292733430862427e-02,4.716073721647262573e-02,-3.644145652651786804e-02,-1.947184093296527863e-02,2.220371179282665253e-02,-1.232143491506576538e-02,-2.671949937939643860e-02,7.298401743173599243e-02,6.555598974227905273e-02,-3.062396124005317688e-02,6.766026467084884644e-02,-4.790200293064117432e-02,9.514276683330535889e-02,5.618514865636825562e-02,-3.816642239689826965e-02,-2.595594525337219238e-02,1.605519279837608337e-02,-1.829151995480060577e-02,-3.779397159814834595e-02,5.326854437589645386e-02,-4.055963084101676941e-02,7.987929880619049072e-02,-7.025353610515594482e-03,9.221937507390975952e-02,2.557654678821563721e-02,9.588639438152313232e-02,3.944382816553115845e-02,-1.630623638629913330e-02,3.213093429803848267e-02,3.084015101194381714e-02,-2.972371876239776611e-03,-1.608469337224960327e-02,2.089841663837432861e-02,7.370315492153167725e-02,-7.761362940073013306e-02,4.803226515650749207e-02,3.814844787120819092e-02,-8.996437489986419678e-02,-1.588194444775581360e-02,1.121590286493301392e-02,7.597668468952178955e-02,-4.220027476549148560e-02,8.240451663732528687e-02,-3.282947093248367310e-02,-2.501284703612327576e-03,-9.997645765542984009e-02,7.664339989423751831e-02,6.002060603350400925e-03,-4.721108451485633850e-02,-7.831417769193649292e-02,-1.284181885421276093e-02,-1.821039617061614990e-02,-6.328495591878890991e-02,2.878848277032375336e-02,-3.336957097053527832e-02,6.667350977659225464e-02,1.039627846330404282e-02,6.227385997772216797e-02,6.578344851732254028e-02,-2.602634020149707794e-02,4.910316318273544312e-02,1.405227370560169220e-02,4.577278345823287964e-02,-8.024644106626510620e-02,-2.379310503602027893e-02,4.107281938195228577e-02,-1.985817030072212219e-02,6.286209821701049805e-02,7.721358537673950195e-02,-2.868875861167907715e-03,1.844979822635650635e-02,-7.429550588130950928e-02,1.578018255531787872e-02,1.371851563453674316e-02,-2.800480928272008896e-03,4.815623909235000610e-02,5.814661830663681030e-02,-8.143335580825805664e-04,-5.037426203489303589e-02,-2.321915701031684875e-02,-3.702127933502197266e-02,-3.442047163844108582e-02,4.589044302701950073e-02,-5.314125865697860718e-02,-4.498077556490898132e-03,-4.330785199999809265e-02,1.308413106016814709e-03,-2.565940842032432556e-02,-6.702981889247894287e-02,3.914733231067657471e-02,1.295796222984790802e-02,1.463808864355087280e-02,-2.973503060638904572e-02,8.364441990852355957e-02,3.492040932178497314e-02,-1.967785321176052094e-02,1.528799440711736679e-02,-8.079290390014648438e-02,2.051262184977531433e-03,5.641696974635124207e-03,-7.066761702299118042e-02,7.336119562387466431e-02,-2.006230130791664124e-02,-2.484915405511856079e-02,-5.093914642930030823e-02,-7.002347707748413086e-02,-3.667508438229560852e-02,-1.363686472177505493e-02,6.030689179897308350e-02,7.948535494506359100e-03,-1.289453636854887009e-02,6.555314362049102783e-02,-3.349759848788380623e-03,6.895281374454498291e-03,3.159037977457046509e-02,7.982575148344039917e-02,-6.822368502616882324e-02,-2.624356374144554138e-02,5.063571780920028687e-02,7.510142773389816284e-02,-3.622525930404663086e-02,-6.305076181888580322e-03,2.424066513776779175e-02
1.803196966648101807e-03,-2.104933187365531921e-02,-1.575512252748012543e-02,-1.098313182592391968e-02,6.311937421560287476e-02,5.881636962294578552e-02,8.099626749753952026e-02,-1.720689050853252411e-02,-8.069052360951900482e-03,-8.710408583283424377e-03,1.360237598419189453e-03,-4.391761124134063721e-02,6.979212164878845215e-03,-3.228772431612014771e-02,7.683900743722915649e-02,-4.689957201480865479e-02,4.375692829489707947e-02,-7.771214097738265991e-02,-9.097412228584289551e-03,3.331936197355389595e-03,-3.308437019586563110e-02,-9.197113104164600372e-03,3.384612128138542175e-02,-1.765799825079739094e-03,-8.084399253129959106e-02,-2.978920377790927887e-02,-1.571430941112339497e-03,-7.171124964952468872e-02,6.409550458192825317e-02,-3.595390170812606812e-02,1.691103540360927582e-02,-4.798761103302240372e-03,8.231338858604431152e-02,1.132843643426895142e-02,-7.766675204038619995e-02,-6.449249386787414551e-02,1.157816965132951736e-02,-1.904363627545535564e-03,-7.456971798092126846e-03,-8.629695512354373932e-03,7.416389137506484985e-02,-4.780634120106697083e-02,-7.145838439464569092e-02,7.610087096691131592e-02,7.180730253458023071e-02,-1.736214384436607361e-02,2.049433998763561249e-02,-6.194977462291717529e-02,8.673578500747680664e-03,-3.459326550364494324e-02,7.935307919979095459e-02,2.774947136640548706e-02,3.629464656114578247e-02,2.791887894272804260e-02,7.444264739751815796e-02,3.756549581885337830e-02,-2.419074065983295441e-03,-2.699472010135650635e-02,5.198207870125770569e-02,7.751218974590301514e-03,-4.116449132561683655e-02,-5.720136687159538269e-02,2.800336480140686035e-02,-2.353876829147338867e-03,-4.254315420985221863e-02,-2.743105404078960419e-02,-1.282681059092283249e-02,5.606629699468612671e-02,4.654978960752487183e-02,-7.959170639514923096e-02,-5.989889055490493774e-02,8.556391112506389618e-03,7.328204065561294556e-02,5.757854878902435303e-02,-2.199981920421123505e-02,5.461869388818740845e-02,5.941399186849594116e-02,4.970266297459602356e-02,3.505259752273559570e-03,7.347146421670913696e-02,1.383034884929656982e-02,-4.930659383535385132e-02,1.918274164199829102e-02,-1.039481908082962036e-02,-3.445097431540489197e-02,-2.645135298371315002e-02,5.973672121763229370e-02,5.517540127038955688e-02,-5.858961492776870728e-02,7.193461060523986816e-02,-5.552422255277633667e-02,8.084008470177650452e-03,-5.736016482114791870e-02,-6.072620674967765808e-02,-7.125928997993469238e-03,-6.523946672677993774e-02,1.097270846366882324e-02,5.065465345978736877e-02,1.395064033567905426e-02,6.342718750238418579e-02,5.247966945171356201e-02,7.654485106468200684e-02,-2.577110752463340759e-02,-5.826434865593910217e-02,2.572777867317199707e-02,-1.915389485657215118e-02,-2.589769661426544189e-02,4.778771195560693741e-03,-5.231170356273651123e-02,3.488285839557647705e-02,-7.864569127559661865e-02,5.421497672796249390e-02,-7.650046050548553467e-02,2.174900844693183899e-03,-2.249721437692642212e-02,-1.010178774595260620e-02,6.302440166473388672e-02,-5.037023127079010010e-02,8.070301264524459839e-02,6.933899223804473877e-02,6.695190817117691040e-02,6.279284507036209106e-02,-2.685800194740295410e-03,1.239625364542007446e-02,-6.558646261692047119e-02,-7.393245398998260498e-02,3.826884925365447998e-02,3.541138255968689919e-03
-2.128079533576965332e-03,4.698954522609710693e-03,7.795333117246627808e-02,4.820222407579421997e-02,-2.661886066198348999e-02,4.147767275571823120e-02,5.851050466299057007e-02,-3.410552814602851868e-02,6.163365393877029419e-02,-1.208477467298507690e-02,-2.454156056046485901e-02,-3.866832330822944641e-02,-3.989733010530471802e-02,2.578456699848175049e-02,1.283094286918640137e-03,-5.951872467994689941e-02,6.535563617944717407e-02,2.991142123937606812e-02,-9.032882750034332275e-03,5.110994726419448853e-02,4.108029603958129883e-02,6.982835382223129272e-02,2.065277844667434692e-02,7.717462629079818726e-02,-4.269287362694740295e-02,5.248531699180603027e-03,-2.518904581665992737e-02,-9.219013154506683350e-03,-7.388332486152648926e-02,7.560057193040847778e-02,-4.236665740609169006e-02,7.905197888612747192e-02,-5.589291453361511230e-03,-5.489427596330642700e-02,1.265119016170501709e-02,-7.299257069826126099e-02,2.139244973659515381e-02,4.930508881807327271e-02,-7.428389787673950195e-02,-3.156055137515068054e-02,-3.277474269270896912e-02,2.483534812927246094e-02,-6.583262234926223755e-02,-1.727007329463958740e-03,-4.828887432813644409e-02,2.334417402744293213e-02,1.504121720790863037e-02,2.349101006984710693e-02,-6.362919509410858154e-02,2.703517675399780273e-02,-3.927254676818847656e-02,7.632417231798171997e-02,-3.228871524333953857e-02,3.391255438327789307e-02,5.396140366792678833e-02,-6.379961967468261719e-02,2.142424136400222778e-02,-5.984830483794212341e-02,-7.297135889530181885e-03,-7.932452857494354248e-02,-5.084249749779701233e-02,7.975587993860244751e-02,3.521409630775451660e-02,-6.185725331306457520e-03,-6.917205452919006348e-02,7.274707406759262085e-02,-3.083083778619766235e-02,1.343183964490890503e-02,-8.393578231334686279e-03,-2.692502364516258240e-02,2.214214205741882324e-02,-5.314230546355247498e-02,1.511659473180770874e-02,1.682240515947341919e-02,-4.671603441238403320e-02,7.996581494808197021e-03,-6.186631321907043457e-02,-3.948000818490982056e-02,1.519650220870971680e-02,-2.501198276877403259e-02,2.261086553335189819e-02,-8.158363401889801025e-03,-2.972414717078208923e-02,8.091431111097335815e-02,-6.100521981716156006e-02,4.347551614046096802e-02,-1.964535191655158997e-02,-3.371951729059219360e-02,7.302672415971755981e-02,1.246061176061630249e-02,1.798918098211288452e-02,5.783659964799880981e-02,-7.635556161403656006e-03,-5.588882789015769958e-02,5.917064100503921509e-02,7.159251719713211060e-02,3.599093854427337646e-02,3.873778879642486572e-02,1.904349029064178467e-02,-7.878100126981735229e-02,-5.242086946964263916e-02,-5.660587176680564880e-02,-6.770810484886169434e-02,-7.664658129215240479e-02,-1.179427653551101685e-02,5.986120551824569702e-02,-3.692540153861045837e-02,-1.167085766792297363e-02,-1.777071505784988403e-02,3.418233990669250488e-02,2.793139219284057617e-02,7.527073472738265991e-02,-7.980912178754806519e-02,5.238174647092819214e-02,-1.051963120698928833e-02,4.837565869092941284e-02,-5.934556573629379272e-02,-2.560688555240631104e-02,-2.302882075309753418e-02,7.831605523824691772e-02,-8.057747781276702881e-02,2.773641794919967651e-02,-6.899860501289367676e-02,3.605562448501586914e-02,1.964970678091049194e-02,1.606705039739608765e-02,4.143522679805755615e-02,-6.622925400733947754e-03
1.265687495470046997e-02,1.869168877601623535e-02,3.630945831537246704e-02,7.576278597116470337e-02,-3.451362624764442444e-02,-1.988403499126434326e-03,7.263917475938796997e-02,-5.255669355392456055e-03,5.959657579660415649e-02,8.675739169120788574e-03,2.090019732713699341e-02,-7.828561216592788696e-02,7.224471122026443481e-02,-4.510956257581710815e-02,-7.564135640859603882e-02,5.971760302782058716e-02,3.329712897539138794e-02,-6.531590223312377930e-02,-5.746275186538696289e-02,2.175009250640869141e-02,7.691014558076858521e-02,7.320726662874221802e-02,7.595464587211608887e-03,1.231830567121505737e-02,3.451118618249893188e-02,-1.083581149578094482e-02,2.715077996253967285e-02,-1.003321260213851929e-02,-6.690844893455505371e-04,7.099660485982894897e-02,-2.512358501553535461e-02,-4.224106669425964355e-03,-1.076385378837585449e-04,-2.879784256219863892e-02,-6.669594347476959229e-02,-1.817984133958816528e-02,7.133261114358901978e-02,-6.243526935577392578e-02,6.965551525354385376e-02,2.652918547391891479e-02,-1.260224729776382446e-02,-5.438912287354469299e-02,1.610903441905975342e-02,4.075788706541061401e-02,4.617033153772354126e-02,-5.914725363254547119e-02,4.770917445421218872e-02,5.618046969175338745e-02,-4.700458049774169922e-02,-7.733546942472457886e-02,7.252866774797439575e-02,7.773188501596450806e-02,-9.219981729984283447e-03,5.716683715581893921e-02,4.830103367567062378e-02,7.106467336416244507e-02,4.929780960083007812e-03,7.456620782613754272e-02,-7.318724691867828369e-02,5.044592171907424927e-02,5.423977226018905640e-02,7.274106889963150024e-02,3.897117823362350464e-02,-4.614441469311714172e-02,2.276645600795745850e-02,7.861696183681488037e-03,7.051181048154830933e-02,6.444650143384933472e-02,-6.043632328510284424e-02,3.259340673685073853e-02,4.788234084844589233e-02,-5.608598142862319946e-02,-4.013737663626670837e-02,3.629103302955627441e-03,-4.801407828927040100e-02,7.477691024541854858e-02,-4.809141159057617188e-02,7.243879139423370361e-03,2.504383027553558350e-02,-1.079247146844863892e-02,-4.963609948754310608e-02,4.623480141162872314e-03,4.535380750894546509e-02,4.411364346742630005e-02,1.947751641273498535e-02,-1.775301992893218994e-02,7.802733033895492554e-02,-3.374088555574417114e-02,-4.119409993290901184e-02,-5.535478144884109497e-02,-6.409309804439544678e-03,7.505542784929275513e-02,-2.064640074968338013e-02,5.382829159498214722e-02,-7.867824286222457886e-02,-3.252035006880760193e-02,-6.796833872795104980e-02,-5.464179813861846924e-02,1.640518009662628174e-02,-1.104906946420669556e-02,1.446735113859176636e-02,-3.382380679249763489e-02,-5.079606920480728149e-02,6.234408169984817505e-02,2.468197792768478394e-02,-3.315350413322448730e-02,7.579308003187179565e-02,8.367277681827545166e-03,-6.542535126209259033e-02,4.531980305910110474e-02,-6.919530034065246582e-02,-3.097802400588989258e-03,-1.050116121768951416e-02,-3.110685572028160095e-02,-1.375933736562728882e-02,-4.317457228899002075e-02,2.484180778264999390e-02,5.808606743812561035e-03,-4.485829919576644897e-02,1.641865819692611694e-02,-6.527194380760192871e-02,-2.507382631301879883e-02,1.031294465065002441e-03,-1.877503469586372375e-02,6.492991000413894653e-02,-4.016466438770294189e-03,4.096677899360656738e-02,-2.566973492503166199e-02
-2.462297305464744568e-02,5.798157304525375366e-02,-5.185540020465850830e-02,7.247700542211532593e-02,8.915595710277557373e-03,-3.902053087949752808e-02,-2.471603080630302429e-02,7.911727577447891235e-02,-8.329778909683227539e-03,5.457788705825805664e-03,-7.781904190778732300e-02,-1.455993950366973877e-02,-3.384428843855857849e-02,1.030201464891433716e-02,-5.618642270565032959e-02,-1.173342019319534302e-02,3.618882596492767334e-02,-1.698248088359832764e-03,5.517867952585220337e-02,8.750677108764648438e-03,-5.928908288478851318e-02,3.496631234884262085e-02,-2.212065458297729492e-02,1.720952242612838745e-02,-3.110237419605255127e-03,1.611419767141342163e-02,1.824674755334854126e-02,-6.768772006034851074e-02,1.356422901153564453e-02,5.749987810850143433e-02,3.515331447124481201e-02,-2.421470358967781067e-02,3.298623114824295044e-02,4.274526238441467285e-02,9.914338588714599609e-03,-7.412730157375335693e-02,7.664982229471206665e-02,-9.893998503684997559e-03,-7.327467203140258789e-02,5.339509993791580200e-02,-1.686408370733261108e-02,-1.384036242961883545e-02,5.426111072301864624e-02,4.579777270555496216e-02,4.675144702196121216e-02,-2.443011105060577393e-02,-2.136526256799697876e-02,6.857461482286453247e-02,-5.273444205522537231e-02,7.538171857595443726e-02,4.519715160131454468e-02,-4.414788633584976196e-02,-1.825846731662750244e-02,6.641062349081039429e-02,2.014548331499099731e-02,1.867269724607467651e-02,-4.332069307565689087e-02,-7.258027791976928711e-02,3.479381650686264038e-02,-7.494442164897918701e-03,7.992585748434066772e-02,8.070168644189834595e-02,5.302137881517410278e-02,-1.358070969581604004e-02,2.719425410032272339e-02,-2.094295248389244080e-02,7.170066982507705688e-02,-6.684014201164245605e-02,4.664228111505508423e-02,-2.052105963230133057e-03,6.271611899137496948e-02,7.313051074743270874e-02,7.225202769041061401e-02,7.703758776187896729e-03,-3.010012209415435791e-02,6.263566762208938599e-02,-4.799653962254524231e-02,-5.975776165723800659e-02,5.955148488283157349e-02,2.958357334136962891e-03,5.882874876260757446e-02,-3.373231738805770874e-02,-1.219378411769866943e-02,3.479186445474624634e-02,7.941330224275588989e-02,4.989621788263320923e-02,-7.414478063583374023e-02,7.996823638677597046e-02,3.598654270172119141e-02,4.618055373430252075e-02,-2.276475727558135986e-02,-6.148099899291992188e-02,1.953022927045822144e-02,5.082055181264877319e-02,3.008109331130981445e-02,-7.432503253221511841e-02,6.320361047983169556e-02,-6.439059972763061523e-02,6.299719959497451782e-02,-1.214690506458282471e-02,-7.373614609241485596e-02,-1.128159463405609131e-02,-2.142782136797904968e-02,7.533910125494003296e-02,-2.641412615776062012e-02,1.429442316293716431e-02,7.447906583547592163e-02,-2.448864281177520752e-03,5.188662558794021606e-02,2.723351120948791504e-02,4.748954623937606812e-02,6.023209542036056519e-02,4.564262926578521729e-03,-7.837087661027908325e-02,-7.923394441604614258e-02,7.698685675859451294e-02,1.595444232225418091e-02,-4.031910002231597900e-02,7.085033506155014038e-02,4.825546592473983765e-02,1.493411511182785034e-02,7.760000973939895630e-02,-5.932183936238288879e-02,5.915918201208114624e-02,1.204503327608108521e-02,-6.900338828563690186e-02,-5.660936981439590454e-02,-1.248097419738769531e-02
-3.688186407089233398e-04,5.232574790716171265e-02,-6.059601902961730957e-03,-7.136186212301254272e-02,5.990602076053619385e-03,4.649481922388076782e-02,-6.350681930780410767e-02,1.607015728950500488e-04,-7.354164123535156250e-02,-5.365997180342674255e-02,3.090759366750717163e-02,4.809390753507614136e-02,1.376006752252578735e-02,-3.068500757217407227e-02,5.920978635549545288e-02,-8.088706433773040771e-02,3.826887160539627075e-02,-2.023751288652420044e-02,-5.841791629791259766e-03,2.009626477956771851e-02,5.346616357564926147e-02,5.179243534803390503e-02,-5.658231675624847412e-03,-4.971728101372718811e-02,-6.791231781244277954e-02,5.953371524810791016e-03,7.947089523077011108e-02,4.251248389482498169e-02,-5.576345697045326233e-02,8.547723293304443359e-03,-6.744699925184249878e-02,5.360386520624160767e-02,5.060284584760665894e-02,-8.101409673690795898e-02,-1.771572232246398926e-02,1.790332049131393433e-02,7.969195395708084106e-02,7.444270700216293335e-02,-2.935495972633361816e-02,3.912410885095596313e-02,-1.370884478092193604e-02,-1.964867860078811646e-02,-3.142514452338218689e-02,-7.818841934204101562e-02,-2.333241328597068787e-02,-6.736809760332107544e-02,2.818015962839126587e-02,7.494580000638961792e-02,-8.090601116418838501e-02,1.716378331184387207e-02,4.285521805286407471e-02,7.680236548185348511e-02,4.820889979600906372e-02,-3.240940347313880920e-02,2.571125328540802002e-02,5.136776715517044067e-02,3.120107203722000122e-02,4.657811671495437622e-02,-2.533516287803649902e-02,3.062300384044647217e-03,-3.176913410425186157e-02,-3.517106920480728149e-02,6.848684698343276978e-02,-5.033200606703758240e-02,3.190684318542480469e-02,-4.634295776486396790e-02,-1.085449010133743286e-02,-1.838720589876174927e-02,7.474171370267868042e-02,1.506476849317550659e-02,-1.187215000391006470e-02,-7.218666374683380127e-02,-5.113015323877334595e-02,6.320632249116897583e-02,5.803249031305313110e-02,5.771302431821823120e-02,-3.197094798088073730e-02,4.975286871194839478e-02,-1.630620658397674561e-02,-8.881188929080963135e-03,-2.946238219738006592e-02,-5.895387008786201477e-02,1.534343510866165161e-02,1.716654747724533081e-02,5.094011873006820679e-02,7.455075532197952271e-02,6.102208048105239868e-02,-2.896707132458686829e-02,-6.532789021730422974e-02,5.072084814310073853e-02,1.553470641374588013e-02,-5.397056415677070618e-02,9.036578238010406494e-03,-2.736702188849449158e-02,5.555070191621780396e-02,4.133596271276473999e-02,7.083223015069961548e-02,4.200951755046844482e-02,3.041330724954605103e-02,-7.120812684297561646e-02,-7.500524073839187622e-02,-4.718305543065071106e-02,6.774502247571945190e-02,-7.844707369804382324e-02,7.655394822359085083e-02,8.091241121292114258e-03,2.792866528034210205e-02,5.478618294000625610e-02,6.253853440284729004e-03,6.066722422838211060e-02,5.889620631933212280e-02,-1.740498840808868408e-02,-3.267727792263031006e-02,-7.573315501213073730e-02,5.546376109123229980e-03,5.734490603208541870e-02,7.755010575056076050e-02,7.332605868577957153e-02,4.589752107858657837e-02,-7.379317283630371094e-02,6.240084767341613770e-04,-1.662900298833847046e-02,2.992060780525207520e-02,-4.602526873350143433e-02,-5.908554792404174805e-02,2.167510241270065308e-02,3.763434290885925293e-02,-2.139262855052947998e-03
6.839116662740707397e-02,4.749124497175216675e-02,9.321637451648712158e-03,-1.899191364645957947e-02,2.433626353740692139e-02,1.541745662689208984e-02,1.164233684539794922e-02,1.556763797998428345e-02,-4.127411916851997375e-02,-6.829977035522460938e-03,6.543636322021484375e-03,-2.145762369036674500e-02,3.824321180582046509e-02,-4.396504536271095276e-02,1.747598499059677124e-02,6.302257627248764038e-02,-1.827672123908996582e-02,7.245821505784988403e-02,-6.745444238185882568e-02,1.346081495285034180e-03,1.756834238767623901e-02,2.852900326251983643e-02,7.364466041326522827e-02,3.975351154804229736e-02,-6.309662014245986938e-02,6.396345049142837524e-02,-7.959976792335510254e-02,-7.515677809715270996e-02,2.935048937797546387e-02,5.966640263795852661e-02,6.784705072641372681e-02,-2.045305445790290833e-02,2.426061034202575684e-02,7.593972235918045044e-02,3.296619653701782227e-02,-5.599234625697135925e-02,-1.756138354539871216e-02,-4.344988986849784851e-02,-3.299686312675476074e-02,-4.000612720847129822e-02,-6.047565862536430359e-02,-1.702334731817245483e-02,-7.950400561094284058e-02,1.698566228151321411e-02,2.515746653079986572e-02,-1.621870696544647217e-02,6.094525009393692017e-02,6.045194715261459351e-02,3.882884979248046875e-02,-2.975812554359436035e-02,-1.732541620731353760e-02,-7.158914953470230103e-02,1.534788310527801514e-02,-1.594340056180953979e-02,-4.311725497245788574e-02,-7.538614422082901001e-02,1.096205413341522217e-02,-5.545219033956527710e-02,-3.466125205159187317e-02,-6.623983383178710938e-03,1.647473871707916260e-02,-2.049426734447479248e-02,4.801396280527114868e-02,-5.080593004822731018e-02,-4.904484748840332031e-02,-3.384819254279136658e-02,1.447491347789764404e-03,3.009673953056335449e-02,5.297274142503738403e-02,-5.481945723295211792e-02,-4.527940973639488220e-02,1.955595612525939941e-02,-5.961349979043006897e-02,5.498417466878890991e-02,-3.299015387892723083e-02,-7.148770242929458618e-02,-2.810657024383544922e-04,2.877324074506759644e-02,5.966167896986007690e-02,-3.083716332912445068e-02,-7.510703802108764648e-02,-5.663586407899856567e-02,8.272461593151092529e-03,6.249006837606430054e-02,7.231540232896804810e-02,7.043372839689254761e-02,2.193459868431091309e-02,-5.808169394731521606e-02,5.695263296365737915e-02,6.433063000440597534e-02,-7.877241820096969604e-02,-1.074145734310150146e-02,1.994300633668899536e-02,9.002618491649627686e-03,5.193146318197250366e-02,-6.876431405544281006e-03,-1.203039288520812988e-02,9.398914873600006104e-03,-4.433229565620422363e-03,-5.734933167695999146e-02,-5.965614318847656250e-02,7.916630059480667114e-02,-6.575861573219299316e-02,2.087681740522384644e-02,-3.543372079730033875e-02,6.185414642095565796e-02,4.468945413827896118e-02,7.207681983709335327e-02,-3.329685702919960022e-02,2.648929506540298462e-02,3.561194241046905518e-02,7.664259523153305054e-02,5.880672484636306763e-02,-1.299050450325012207e-02,5.825506895780563354e-02,5.683139711618423462e-02,-6.413622200489044189e-02,-7.618767768144607544e-02,1.445817947387695312e-02,7.657747715711593628e-02,4.571910947561264038e-02,7.635048776865005493e-02,1.903207600116729736e-02,4.208312183618545532e-02,5.667916685342788696e-02,7.704233378171920776e-02,-4.010995477437973022e-02,5.580966919660568237e-02
-7.269077003002166748e-02,-1.965297386050224304e-02,3.313619643449783325e-02,8.004263788461685181e-02,-1.727819442749023438e-03,4.369395971298217773e-02,-5.914303660392761230e-02,-2.343535050749778748e-02,2.372378110885620117e-02,-7.371755689382553101e-02,-5.441722273826599121e-02,5.076269060373306274e-02,-4.055183380842208862e-02,2.045823633670806885e-02,7.320211082696914673e-02,1.319825649261474609e-02,-6.222629547119140625e-02,1.464189589023590088e-02,3.077533841133117676e-02,2.842163294553756714e-02,2.955611795186996460e-02,-3.049030900001525879e-02,-3.081219643354415894e-02,6.188190728425979614e-02,-4.400372132658958435e-02,8.649326860904693604e-03,5.803004652261734009e-02,-7.780757546424865723e-02,1.026421785354614258e-03,8.060917258262634277e-03,1.343183964490890503e-02,5.864349752664566040e-02,4.078279435634613037e-02,-3.205081447958946228e-02,-7.937254011631011963e-02,4.973457008600234985e-02,4.391104727983474731e-02,3.103344887495040894e-02,-1.739207655191421509e-02,3.303948789834976196e-02,-6.688282638788223267e-02,-5.800068378448486328e-02,-6.594339013099670410e-02,-7.031353563070297241e-02,5.002304166555404663e-02,-6.657733768224716187e-02,-4.754773527383804321e-02,6.609558314085006714e-02,1.354667544364929199e-02,4.183419793844223022e-02,-1.567851006984710693e-02,-8.005417883396148682e-03,-1.188597828149795532e-02,6.466080993413925171e-02,3.528209030628204346e-02,6.892361491918563843e-02,-7.215119898319244385e-02,2.598828077316284180e-02,2.577876299619674683e-02,5.004695802927017212e-02,4.783122986555099487e-02,5.291231721639633179e-02,-1.232808828353881836e-02,6.450065225362777710e-02,2.443630248308181763e-02,-6.123691052198410034e-02,-6.922744214534759521e-02,7.061605900526046753e-02,-1.409551501274108887e-02,6.154117733240127563e-02,2.521979063749313354e-02,7.058636099100112915e-02,-2.224459499120712280e-02,7.136743515729904175e-02,-1.023502647876739502e-02,6.868842989206314087e-02,-1.516971737146377563e-02,-1.000149548053741455e-02,9.754143655300140381e-03,-8.148029446601867676e-04,4.018887877464294434e-03,-4.623288661241531372e-02,5.241385847330093384e-02,4.220800846815109253e-02,-3.287731483578681946e-02,-8.021269738674163818e-02,-2.183319255709648132e-02,5.955446511507034302e-02,4.744332283735275269e-02,3.399781137704849243e-02,-7.978653907775878906e-02,7.045815140008926392e-02,4.760486632585525513e-02,-7.451263815164566040e-02,-5.926910415291786194e-02,-6.138695776462554932e-02,-1.509437710046768188e-02,-1.014185696840286255e-02,-9.395927190780639648e-04,4.934283345937728882e-02,7.869904488325119019e-02,3.809361159801483154e-02,7.439180463552474976e-02,-5.221163108944892883e-02,6.478390842676162720e-02,-5.976774170994758606e-02,-3.011916950345039368e-02,-5.849083513021469116e-02,-3.819101676344871521e-02,7.405804842710494995e-02,-6.805138289928436279e-02,3.836264461278915405e-02,-4.018730670213699341e-02,-1.085897535085678101e-02,-4.773907363414764404e-03,-2.350597456097602844e-02,5.625165998935699463e-03,-2.017614990472793579e-02,-2.306032180786132812e-02,5.210871249437332153e-02,4.141382128000259399e-02,5.277218669652938843e-02,3.381352126598358154e-02,-5.284869298338890076e-02,2.948413789272308350e-02,-4.026162624359130859e-02,-4.597959294915199280e-02,7.347937673330307007e-02
5.491944402456283569e-02,5.040971189737319946e-02,3.354301303625106812e-02,2.860805392265319824e-02,-1.869091019034385681e-02,6.532583385705947876e-02,-6.871079653501510620e-02,-4.301102831959724426e-02,-6.856440752744674683e-02,5.528278648853302002e-03,4.473666101694107056e-02,3.546442836523056030e-02,-1.692410558462142944e-02,-2.914554625749588013e-02,-1.869456470012664795e-02,1.217943429946899414e-02,7.475947588682174683e-02,7.296905666589736938e-02,-7.931865006685256958e-02,3.408982604742050171e-02,6.804349273443222046e-02,-4.849500954151153564e-03,-7.915175706148147583e-02,4.197536408901214600e-02,8.050515502691268921e-02,7.615933567285537720e-02,5.572394281625747681e-02,3.870415687561035156e-02,4.301907122135162354e-02,7.924123853445053101e-02,-2.289563789963722229e-02,5.230041593313217163e-02,3.548522293567657471e-02,-4.014596343040466309e-04,-2.447362244129180908e-02,3.781960159540176392e-02,-3.961218520998954773e-02,3.650157898664474487e-02,-1.761848479509353638e-02,-8.100003004074096680e-03,-3.767644241452217102e-02,-5.054682493209838867e-03,2.022329717874526978e-02,2.169712632894515991e-02,2.548073977231979370e-02,2.551943063735961914e-03,-5.640935897827148438e-02,3.314775973558425903e-02,-6.456915289163589478e-02,6.557285785675048828e-03,2.215196192264556885e-02,-3.869040682911872864e-02,1.531183719635009766e-03,-3.037087619304656982e-02,2.078077942132949829e-02,-7.515437901020050049e-02,1.824860274791717529e-02,-1.787568628787994385e-02,1.509600132703781128e-02,4.075817763805389404e-03,-3.543741628527641296e-02,-4.755852743983268738e-02,7.359538227319717407e-02,3.258190304040908813e-02,-6.797443330287933350e-02,1.241886615753173828e-02,2.493432164192199707e-02,4.436048120260238647e-02,-4.529981315135955811e-02,-6.367413699626922607e-02,3.669626265764236450e-02,-1.899293810129165649e-02,-7.959300279617309570e-02,-2.784132957458496094e-03,-6.112374365329742432e-02,7.304558902978897095e-02,2.566888928413391113e-03,3.688424825668334961e-02,4.344038665294647217e-03,3.128761053085327148e-02,-5.125800147652626038e-02,7.822499424219131470e-02,-6.333276629447937012e-03,-5.979603528976440430e-02,-3.040081262588500977e-02,2.304121851921081543e-03,1.412753760814666748e-02,2.971217781305313110e-02,-7.470495253801345825e-02,-1.852568238973617554e-02,-6.714694947004318237e-02,8.630856871604919434e-03,7.876691967248916626e-02,7.575019448995590210e-02,-4.220508411526679993e-02,-3.805914893746376038e-02,-5.371116101741790771e-03,-3.516248241066932678e-02,4.576816409826278687e-02,2.797130495309829712e-02,-5.147933959960937500e-03,-2.566987276077270508e-02,1.913075894117355347e-02,4.118094593286514282e-02,-3.082130476832389832e-02,5.567080527544021606e-02,-6.486818194389343262e-02,-2.551077678799629211e-02,-6.497380882501602173e-02,4.992111772298812866e-02,-6.341779232025146484e-02,2.711656689643859863e-02,-4.031016305088996887e-02,-6.219746172428131104e-02,-1.574234664440155029e-02,-5.413737893104553223e-02,2.628922462463378906e-03,6.389115005731582642e-02,-5.715248733758926392e-02,5.865896493196487427e-02,5.956823378801345825e-02,6.671533733606338501e-02,5.726654082536697388e-02,-5.441225320100784302e-02,-6.535246968269348145e-02,-7.584898918867111206e-02,7.289690524339675903e-02,-8.171111345291137695e-03
7.101766020059585571e-02,2.432300150394439697e-02,7.087825983762741089e-02,7.251153141260147095e-02,-1.950642839074134827e-02,2.553120255470275879e-03,-6.014265492558479309e-02,3.742980211973190308e-02,-3.548682481050491333e-02,-2.838380634784698486e-03,-5.919088050723075867e-02,-6.184334307909011841e-02,-3.767410293221473694e-02,-1.111924648284912109e-04,-5.683800950646400452e-02,-5.485022813081741333e-02,4.936522990465164185e-02,1.260822266340255737e-02,-7.016509771347045898e-04,7.824008911848068237e-02,-2.591001614928245544e-02,4.131591320037841797e-02,-3.348248824477195740e-02,2.228967845439910889e-03,-3.073733672499656677e-02,1.702515035867691040e-02,-6.876720488071441650e-02,-3.108552470803260803e-02,-1.506856083869934082e-02,5.273535847663879395e-03,6.697214394807815552e-02,-5.698093771934509277e-02,7.309221476316452026e-02,1.617776602506637573e-02,-2.182841673493385315e-02,-4.833258688449859619e-03,5.246213823556900024e-02,5.854757875204086304e-02,-1.766254007816314697e-02,-3.186462447047233582e-02,-5.586094409227371216e-02,-3.563503175973892212e-02,3.264307975769042969e-03,6.139337271451950073e-02,-3.888605162501335144e-02,-2.768600732088088989e-02,-3.348320350050926208e-02,-7.553890347480773926e-03,-2.890325337648391724e-02,-5.605980753898620605e-03,-7.316390424966812134e-02,-1.491335034370422363e-02,3.920981287956237793e-02,3.687995672225952148e-02,6.803736090660095215e-03,-4.407830908894538879e-02,-3.548130393028259277e-03,6.571943312883377075e-02,-3.033593297004699707e-02,5.997552722692489624e-02,-3.990233689546585083e-02,4.553511738777160645e-03,6.454380601644515991e-02,5.533166974782943726e-02,6.328595429658889771e-02,-1.941172778606414795e-02,-4.345269501209259033e-02,2.345768362283706665e-02,5.871134251356124878e-02,-6.205242872238159180e-02,7.737820595502853394e-02,7.433851808309555054e-02,-1.138962060213088989e-02,1.829101145267486572e-02,6.721100956201553345e-02,-7.471556961536407471e-02,-4.275243729352951050e-02,5.688693374395370483e-02,-6.085175275802612305e-02,-2.472571656107902527e-02,-3.483904898166656494e-02,2.113925665616989136e-02,3.562700748443603516e-02,-3.950744867324829102e-02,1.908204704523086548e-02,-5.573011934757232666e-02,-4.568365961313247681e-02,-3.181144595146179199e-02,-5.551720410585403442e-02,2.806752920150756836e-02,-5.811317637562751770e-02,-4.061418026685714722e-02,2.032905817031860352e-02,-6.892514228820800781e-02,-5.250412225723266602e-02,-5.625670030713081360e-02,5.893377214670181274e-02,3.127931058406829834e-02,8.077483624219894409e-02,6.662008911371231079e-02,-1.481629163026809692e-02,1.235282421112060547e-02,-5.942508578300476074e-02,-3.454317525029182434e-02,4.095714539289474487e-02,5.873326212167739868e-02,5.829054862260818481e-02,-7.045537978410720825e-02,-5.386213585734367371e-02,-2.052826434373855591e-02,-1.907367631793022156e-02,-4.492498934268951416e-03,3.233541548252105713e-02,6.437014788389205933e-02,6.686561554670333862e-02,-1.630754023790359497e-02,1.017049700021743774e-02,1.596900820732116699e-02,-1.030977070331573486e-02,4.499981552362442017e-02,4.199922829866409302e-02,-7.319627702236175537e-02,6.167799234390258789e-03,4.705358296632766724e-02,1.294585317373275757e-02,3.465153276920318604e-03,9.672917425632476807e-03,4.025355726480484009e-02
5.616351217031478882e-02,-1.192668080329895020e-02,-2.599845081567764282e-02,4.169918596744537354e-03,3.576858341693878174e-02,-7.726551592350006104e-02,-6.965062022209167480e-02,-5.868518352508544922e-02,1.654934883117675781e-02,9.246021509170532227e-04,-5.218103528022766113e-02,7.242687791585922241e-02,-2.367614954710006714e-02,-1.779007911682128906e-02,3.797123581171035767e-02,1.329428702592849731e-02,8.159585297107696533e-03,4.945016652345657349e-02,3.635670244693756104e-02,-2.016866579651832581e-02,3.549591451883316040e-02,-4.973635077476501465e-04,4.472940415143966675e-02,-7.456161826848983765e-02,1.953876018524169922e-02,8.778236806392669678e-03,-5.904041230678558350e-02,-4.317209869623184204e-02,-3.977790474891662598e-03,-2.851625531911849976e-02,-4.566731676459312439e-02,-6.826839596033096313e-02,-2.414690330624580383e-02,-1.626446098089218140e-02,-1.573441177606582642e-02,5.227138847112655640e-02,-4.223449900746345520e-02,3.512726724147796631e-02,1.856850087642669678e-02,4.760430008172988892e-02,3.040104359388351440e-02,-6.149786338210105896e-02,7.099687308073043823e-02,-3.628265485167503357e-02,1.200691610574722290e-02,7.974091917276382446e-02,-1.667560636997222900e-02,-6.254480034112930298e-02,-5.593626201152801514e-02,1.440024375915527344e-02,-6.872469931840896606e-02,-6.680379062891006470e-02,3.153277933597564697e-02,2.886258810758590698e-02,-7.471073418855667114e-02,7.839708775281906128e-02,3.416412323713302612e-02,2.258661389350891113e-02,-4.639246687293052673e-02,-5.346152186393737793e-02,3.516826778650283813e-02,4.220336675643920898e-02,-4.980285093188285828e-02,-6.360210478305816650e-02,7.632866501808166504e-03,-5.492578074336051941e-02,3.904752433300018311e-02,6.218218058347702026e-02,-4.978024587035179138e-02,-5.997680872678756714e-02,1.777052134275436401e-02,-7.323341071605682373e-02,3.462342917919158936e-02,-1.734714955091476440e-02,2.124793827533721924e-03,-5.880042910575866699e-03,7.956837862730026245e-02,-5.903673544526100159e-02,-1.745218038558959961e-02,-5.644192174077033997e-02,-6.757341325283050537e-03,-7.625604420900344849e-02,6.271118670701980591e-02,-4.561490938067436218e-02,3.237125277519226074e-02,4.242449998855590820e-02,7.968709617853164673e-02,-5.021386593580245972e-02,4.512008279561996460e-02,-3.254247084259986877e-02,-1.990740746259689331e-02,6.035462766885757446e-02,4.869037121534347534e-02,-5.847505480051040649e-02,-3.869806602597236633e-02,3.480832278728485107e-02,-6.773822009563446045e-02,7.856941968202590942e-02,6.968418508768081665e-02,-3.953837230801582336e-02,-7.320825010538101196e-02,-5.746973305940628052e-02,-4.001297429203987122e-02,7.686320692300796509e-02,-6.009627878665924072e-02,5.108929425477981567e-02,6.259142607450485229e-02,5.515458434820175171e-02,7.084295153617858887e-03,4.723230749368667603e-02,3.237213939428329468e-02,-5.563344806432723999e-02,-5.244713276624679565e-02,-4.156056046485900879e-02,2.375507354736328125e-02,7.288921624422073364e-02,-5.089297145605087280e-02,1.212099194526672363e-02,-3.398659825325012207e-02,3.514310717582702637e-02,-7.042672485113143921e-02,1.090721040964126587e-02,2.040832489728927612e-02,1.420193165540695190e-02,2.559804916381835938e-02,-4.984232038259506226e-02,-5.883248150348663330e-02,-7.683754712343215942e-02
-6.392928957939147949e-02,-7.905530184507369995e-02,1.431689411401748657e-02,-7.808167487382888794e-02,-2.694225311279296875e-02,-3.996766358613967896e-02,-5.088786780834197998e-02,5.689557641744613647e-02,1.469552516937255859e-04,4.520598798990249634e-02,7.555427402257919312e-02,-2.611167356371879578e-02,-7.240189611911773682e-02,-6.071068346500396729e-03,-3.001302108168601990e-02,2.408854663372039795e-03,6.956763565540313721e-03,-2.435617148876190186e-03,-7.086622714996337891e-02,1.258782297372817993e-02,-4.501755163073539734e-02,-8.032791316509246826e-02,8.078169077634811401e-02,-7.893189787864685059e-02,2.138873934745788574e-02,-6.527639180421829224e-02,4.210531711578369141e-03,-3.774497658014297485e-02,-3.799194470047950745e-02,3.085683286190032959e-02,-7.853339612483978271e-02,6.155630201101303101e-02,5.253272503614425659e-02,-5.340635031461715698e-02,3.754892200231552124e-02,2.195869386196136475e-02,7.629594951868057251e-02,1.121242344379425049e-02,2.095227688550949097e-02,3.908508270978927612e-02,-1.743297278881072998e-02,-8.526645600795745850e-03,5.736579746007919312e-02,6.139687448740005493e-02,-2.045891433954238892e-02,5.444676429033279419e-02,-6.700041890144348145e-02,-5.705123394727706909e-02,1.823864877223968506e-02,-2.124865353107452393e-02,-3.095988184213638306e-02,6.569331139326095581e-02,6.948136538267135620e-02,-4.619084298610687256e-02,6.123010069131851196e-02,5.656135827302932739e-02,3.262042999267578125e-03,6.548763066530227661e-02,-7.166228443384170532e-02,-4.591469466686248779e-02,1.193676143884658813e-02,-3.401931747794151306e-02,5.923620611429214478e-02,-5.105689913034439087e-02,-3.816415369510650635e-02,-1.199489086866378784e-02,1.896617561578750610e-02,-8.061017841100692749e-02,-1.702334731817245483e-02,-4.485503211617469788e-02,3.141017258167266846e-02,3.130915015935897827e-02,5.979416519403457642e-02,3.572485595941543579e-02,2.479212731122970581e-02,-5.093404650688171387e-02,-2.655886113643646240e-03,-6.461889296770095825e-02,2.470676600933074951e-02,8.074710518121719360e-02,-4.797285050153732300e-02,-6.451846659183502197e-02,-2.916082367300987244e-02,2.784194797277450562e-02,-1.410270482301712036e-02,6.164578348398208618e-02,2.082370221614837646e-03,-4.203489050269126892e-02,-6.085484474897384644e-02,-7.076947391033172607e-02,-1.949716359376907349e-02,1.230554282665252686e-02,6.617970019578933716e-02,-5.831137299537658691e-02,-2.434223890304565430e-02,2.237242460250854492e-02,-7.605086266994476318e-02,4.149185121059417725e-02,5.371292680501937866e-02,2.134511619806289673e-02,-8.788734674453735352e-03,-1.886370033025741577e-02,-4.165377095341682434e-02,-7.463328540325164795e-03,-5.818946659564971924e-02,5.748719722032546997e-02,-4.835918918251991272e-02,-6.329094618558883667e-02,7.561651617288589478e-02,-1.236962527036666870e-02,-1.705514639616012573e-02,-7.793723791837692261e-02,-5.832783132791519165e-02,7.760141044855117798e-02,7.362089306116104126e-02,2.408698201179504395e-03,-1.436887681484222412e-02,-2.450998127460479736e-02,6.931893527507781982e-03,7.239774614572525024e-02,-7.767863571643829346e-03,-7.830706238746643066e-02,3.609277307987213135e-02,1.650218665599822998e-02,4.973534494638442993e-02,4.909717291593551636e-02,6.354182213544845581e-02,5.643250793218612671e-02
-2.824422344565391541e-02,-6.386595219373703003e-02,-4.459139332175254822e-02,7.895148545503616333e-02,-2.850281819701194763e-02,7.801860570907592773e-03,4.704051464796066284e-02,-2.700813859701156616e-02,6.674601882696151733e-02,-6.981847435235977173e-02,4.048840701580047607e-02,-1.611375808715820312e-02,-2.461086958646774292e-02,-7.795421779155731201e-02,-3.091938793659210205e-02,5.604743957519531250e-03,-7.997417449951171875e-02,-7.909944653511047363e-02,-1.061794161796569824e-02,-3.919461369514465332e-02,7.966741174459457397e-02,-2.783423289656639099e-02,-5.896889418363571167e-02,-6.618488579988479614e-02,7.574409246444702148e-04,-5.761287361383438110e-02,-2.127713710069656372e-02,-5.679786205291748047e-02,8.654043078422546387e-03,6.920618563890457153e-02,7.512622326612472534e-02,-3.900873661041259766e-02,5.960353463888168335e-02,5.283213406801223755e-02,1.537203788757324219e-04,-1.240126788616180420e-02,-7.282087951898574829e-02,5.848323553800582886e-02,7.889924198389053345e-02,-7.118575274944305420e-02,7.116279751062393188e-02,-7.731419056653976440e-02,5.449091643095016479e-02,1.688645780086517334e-02,-2.489320561289787292e-02,-7.692025601863861084e-02,-3.994385898113250732e-02,4.792986065149307251e-02,-4.414401948451995850e-02,3.581273555755615234e-02,-2.936681360006332397e-02,6.072328239679336548e-02,7.790488749742507935e-02,-2.154093235731124878e-02,7.178839296102523804e-02,-1.809693872928619385e-02,-7.128122448921203613e-02,-4.266767576336860657e-02,4.533208906650543213e-03,-4.149117320775985718e-02,-4.091092571616172791e-02,-6.797397136688232422e-02,7.365379482507705688e-02,-8.101426810026168823e-02,7.698119431734085083e-02,-1.013237982988357544e-02,4.748290032148361206e-02,-5.010510981082916260e-02,-2.569369599223136902e-02,7.348924875259399414e-03,-6.306122988462448120e-02,8.808821439743041992e-05,6.142772734165191650e-03,4.354797303676605225e-02,-3.118209913372993469e-02,-9.572513401508331299e-03,-4.506119713187217712e-02,-5.537199229001998901e-02,-6.963308155536651611e-02,-7.331743091344833374e-02,-5.198554694652557373e-02,-1.329082995653152466e-02,-3.560252487659454346e-02,-2.483604475855827332e-02,4.947518557310104370e-02,1.651862263679504395e-02,2.625744789838790894e-02,5.524743348360061646e-02,-5.476215854287147522e-02,-3.379402682185173035e-02,8.005174249410629272e-02,2.074582129716873169e-02,3.590366244316101074e-02,-3.625186532735824585e-02,-4.799343645572662354e-03,6.095460802316665649e-02,4.069896042346954346e-02,-4.881484061479568481e-02,-6.453388184309005737e-02,5.524971336126327515e-02,-4.228247702121734619e-02,4.750479012727737427e-02,7.390237599611282349e-02,4.931885749101638794e-02,-2.864352241158485413e-02,-2.680762112140655518e-02,1.919902861118316650e-03,-1.574976742267608643e-02,2.619487047195434570e-02,5.905713886022567749e-02,-3.601704165339469910e-02,7.918985933065414429e-02,-3.926670923829078674e-02,4.733315855264663696e-02,1.569771021604537964e-02,-1.303198188543319702e-02,5.145318061113357544e-02,2.517393976449966431e-02,-2.033405005931854248e-03,-3.091756999492645264e-02,6.860051304101943970e-02,-2.599044144153594971e-02,-1.818169653415679932e-02,-5.003172159194946289e-02,3.640548884868621826e-02,7.168079167604446411e-02,6.836589425802230835e-02,9.845629334449768066e-03
-3.854259848594665527e-03,-3.317535668611526489e-02,1.840170472860336304e-02,-2.710301429033279419e-02,-4.166966676712036133e-02,1.436518877744674683e-02,6.401232630014419556e-02,-7.444530725479125977e-03,6.337808817625045776e-02,-5.005871504545211792e-02,-2.328201755881309509e-02,-1.631500571966171265e-02,3.303940594196319580e-02,-7.251951098442077637e-02,5.700409412384033203e-03,7.955900579690933228e-02,2.581334114074707031e-02,-3.730162978172302246e-03,2.157597243785858154e-02,-3.324000537395477295e-02,-9.007029235363006592e-03,1.310860365629196167e-02,6.275763362646102905e-02,-2.573101967573165894e-02,4.302561283111572266e-03,3.750721365213394165e-02,4.761383682489395142e-02,-3.910844400525093079e-02,6.406813859939575195e-03,-5.552072077989578247e-02,1.146326214075088501e-02,-3.792316094040870667e-02,-2.285480499267578125e-03,4.107512533664703369e-02,7.929324358701705933e-02,-2.815397456288337708e-02,-5.850249528884887695e-02,1.382848620414733887e-02,-7.942146807909011841e-02,-6.540443003177642822e-02,-2.830363065004348755e-02,7.251375168561935425e-02,3.155780583620071411e-02,4.459490627050399780e-02,-6.813757121562957764e-02,1.597428321838378906e-02,2.983545511960983276e-02,6.263381987810134888e-02,-4.590156301856040955e-02,1.606218516826629639e-03,2.327124774456024170e-02,-3.911343216896057129e-02,2.964998781681060791e-02,-3.955898806452751160e-02,2.257060259580612183e-02,-9.456641972064971924e-03,5.962383002042770386e-02,6.200081855058670044e-02,6.527864187955856323e-02,-7.332191616296768188e-02,6.572047621011734009e-02,7.917272299528121948e-02,-2.048100158572196960e-02,3.445661813020706177e-02,2.870731800794601440e-02,-5.168657749891281128e-02,7.056266814470291138e-02,2.441264688968658447e-02,-3.915968909859657288e-02,-4.680166393518447876e-02,1.633019000291824341e-02,2.346770465373992920e-02,3.710522502660751343e-02,-3.876172006130218506e-03,-7.460899651050567627e-02,-3.671581298112869263e-02,-3.298353776335716248e-02,-5.525373667478561401e-02,6.203513592481613159e-02,4.463643580675125122e-02,2.888347208499908447e-02,-4.391743242740631104e-02,4.542884975671768188e-02,-1.346763968467712402e-02,-5.406868830323219299e-02,-7.404590398073196411e-02,6.243545562028884888e-02,-7.216040045022964478e-02,-6.831395626068115234e-02,-6.005913019180297852e-04,5.981268733739852905e-02,2.807751297950744629e-04,3.035584837198257446e-02,-2.658956125378608704e-02,7.361543923616409302e-02,6.031965464353561401e-02,4.685551673173904419e-02,-5.708803236484527588e-02,-5.528203025460243225e-02,4.293847084045410156e-02,3.242321312427520752e-02,-6.814089417457580566e-02,4.270863533020019531e-02,-5.016898363828659058e-02,-7.066737115383148193e-02,4.555246978998184204e-02,-6.563778966665267944e-02,-2.313638105988502502e-02,-7.676362991333007812e-02,-5.006127059459686279e-02,5.288153886795043945e-03,-7.039006054401397705e-02,3.407660126686096191e-02,-1.059000194072723389e-02,-4.763452708721160889e-02,-4.619883000850677490e-02,-4.029566049575805664e-02,-5.403507500886917114e-02,3.853858262300491333e-02,-6.336516886949539185e-02,-5.125045776367187500e-02,-5.960160493850708008e-02,-2.753015980124473572e-02,-1.232936233282089233e-02,4.587265104055404663e-02,-5.478971451520919800e-02,4.840215295553207397e-02,3.953881561756134033e-02
4.907675832509994507e-02,3.354960680007934570e-02,1.820936799049377441e-02,-6.393145024776458740e-02,-5.652525275945663452e-02,-5.966667830944061279e-02,1.730613410472869873e-02,-5.741769447922706604e-02,-7.808029651641845703e-02,-3.738329187035560608e-02,1.644600927829742432e-02,-4.058449715375900269e-02,9.026847779750823975e-03,6.195084005594253540e-02,1.740355789661407471e-02,-1.918510347604751587e-02,2.590112388134002686e-03,5.476392805576324463e-03,-3.644793853163719177e-02,-1.010049134492874146e-02,6.072860211133956909e-02,-2.814099565148353577e-02,-4.837785288691520691e-02,3.614570200443267822e-02,-7.280547171831130981e-02,-1.222047209739685059e-02,-4.239322617650032043e-02,-2.678677439689636230e-02,2.550671249628067017e-02,4.874109476804733276e-02,5.151272565126419067e-02,-8.061682432889938354e-02,7.877559214830398560e-02,-1.909477263689041138e-02,1.202029734849929810e-02,-4.904583096504211426e-03,7.456434518098831177e-02,7.685219496488571167e-02,5.181621760129928589e-02,5.080919712781906128e-02,7.420343905687332153e-02,-2.446873113512992859e-02,-2.853956073522567749e-02,-2.898014336824417114e-02,-2.469110116362571716e-02,-7.144579291343688965e-02,-1.083770394325256348e-02,-2.400221303105354309e-02,1.892061531543731689e-02,-1.886771991848945618e-02,-6.208039820194244385e-03,-4.627690091729164124e-02,6.830731779336929321e-02,4.065684974193572998e-03,2.182574570178985596e-02,7.155213505029678345e-02,8.020914345979690552e-02,-1.557141542434692383e-03,4.758093506097793579e-02,6.001695245504379272e-02,7.561892271041870117e-04,7.252337783575057983e-02,3.631249070167541504e-02,-1.936420798301696777e-03,1.168495416641235352e-02,-4.844814538955688477e-04,-6.044404208660125732e-02,5.099952220916748047e-03,5.846785753965377808e-02,-6.505015492439270020e-02,1.836210489273071289e-02,7.912110537290573120e-02,-6.160428375005722046e-02,-1.109329611063003540e-02,4.571425169706344604e-02,-5.436450615525245667e-02,-3.763621672987937927e-02,5.319809168577194214e-02,-6.726320832967758179e-02,7.049375027418136597e-02,-7.303453981876373291e-03,-4.537991061806678772e-02,6.405556946992874146e-02,5.332627147436141968e-02,2.061874419450759888e-02,-1.658357679843902588e-03,-8.628129959106445312e-03,4.865408688783645630e-02,5.847153812646865845e-02,-3.298212960362434387e-02,-2.616854757070541382e-02,6.183905154466629028e-02,4.437699168920516968e-02,2.258183807134628296e-02,-6.586315482854843140e-02,6.345122307538986206e-02,2.636411786079406738e-02,4.191346466541290283e-02,-6.254205107688903809e-02,-1.726192981004714966e-02,-5.146609991788864136e-02,-1.275200396776199341e-02,4.839681088924407959e-03,1.829268038272857666e-02,2.813865989446640015e-02,8.988656103610992432e-03,-7.594277709722518921e-02,1.390151679515838623e-03,6.002358347177505493e-02,4.196538776159286499e-02,-6.542657315731048584e-02,-4.570025205612182617e-02,8.675143122673034668e-03,-7.809399068355560303e-02,-7.248774170875549316e-02,1.154005527496337891e-02,3.229992836713790894e-02,6.660013645887374878e-02,2.371501922607421875e-02,-4.135423898696899414e-02,7.010937482118606567e-02,-7.308131456375122070e-02,-6.771218776702880859e-02,-7.198517769575119019e-02,-6.608590483665466309e-03,-3.914951905608177185e-02,6.199427694082260132e-02,6.681964546442031860e-02
3.216609358787536621e-02,4.585220664739608765e-02,2.086824923753738403e-02,6.592523306608200073e-02,-5.420614406466484070e-02,-2.469997853040695190e-02,7.751890271902084351e-02,2.050778269767761230e-02,7.527106255292892456e-02,-4.558298364281654358e-02,9.215474128723144531e-04,-1.237682253122329712e-02,-1.738128066062927246e-02,-4.935360327363014221e-02,5.675303190946578979e-02,4.849862307310104370e-02,-1.854239404201507568e-02,-5.060243234038352966e-02,5.428353697061538696e-02,-3.450873121619224548e-02,-2.955220639705657959e-03,6.926078349351882935e-02,-5.882591009140014648e-02,3.983151912689208984e-02,-7.034766674041748047e-02,4.692325741052627563e-02,-6.415163725614547729e-02,5.449233204126358032e-02,2.361001074314117432e-02,2.980244904756546021e-02,-3.612497076392173767e-02,-4.652936011552810669e-02,7.971280068159103394e-02,-4.714559391140937805e-02,-7.102377712726593018e-03,-5.464800447225570679e-02,-6.651334464550018311e-02,6.892465800046920776e-02,2.279177308082580566e-02,3.196100890636444092e-02,3.588200360536575317e-02,-1.984670758247375488e-03,2.876028418540954590e-03,-8.625000715255737305e-03,-3.718957304954528809e-04,-4.608738422393798828e-02,7.245811074972152710e-02,7.649403065443038940e-02,-6.673417240381240845e-02,2.096882462501525879e-02,-2.387206628918647766e-02,6.563851982355117798e-02,-5.835401639342308044e-02,3.076361864805221558e-02,-8.109473437070846558e-02,-8.074563741683959961e-02,6.013921648263931274e-02,-6.567565351724624634e-02,5.051105469465255737e-02,5.677469819784164429e-02,-1.995519176125526428e-02,4.919055849313735962e-02,7.074857503175735474e-02,-5.071996897459030151e-02,6.961259990930557251e-02,3.034206479787826538e-02,8.064190298318862915e-02,8.447915315628051758e-03,8.097646385431289673e-02,-5.521889030933380127e-02,-2.767548710107803345e-02,-4.735764116048812866e-02,-4.835012182593345642e-02,5.954543501138687134e-02,-9.978927671909332275e-03,-4.035881906747817993e-02,-4.349831491708755493e-02,-5.497398972511291504e-02,-1.943967118859291077e-02,4.709474742412567139e-03,5.709331482648849487e-02,7.824962586164474487e-02,-5.957532674074172974e-02,3.783382475376129150e-03,1.865467429161071777e-02,-6.201131641864776611e-02,-5.239625275135040283e-02,-5.990339815616607666e-02,-4.451398178935050964e-02,-1.112141460180282593e-02,1.351683586835861206e-02,6.300356239080429077e-02,-4.789356142282485962e-02,-7.603229582309722900e-02,-7.361162453889846802e-02,4.429642111063003540e-02,8.021622151136398315e-02,4.964124411344528198e-02,5.510755628347396851e-02,5.273906141519546509e-02,-5.931489914655685425e-02,-5.013883486390113831e-02,-2.613449469208717346e-02,-2.545993402600288391e-02,6.267074495553970337e-02,6.643427163362503052e-02,5.647746473550796509e-02,-7.190538942813873291e-02,2.838893234729766846e-02,-7.781863212585449219e-02,2.968460321426391602e-04,7.083884626626968384e-02,-1.495324075222015381e-02,6.277853995561599731e-02,-5.949675291776657104e-02,-2.859641239047050476e-02,-3.324841707944869995e-02,4.430726915597915649e-02,-1.002162694931030273e-02,-1.290040463209152222e-02,-1.146602630615234375e-02,-9.867191314697265625e-03,-4.997227340936660767e-02,2.158067375421524048e-02,4.812548309564590454e-02,6.740438193082809448e-02,4.878633469343185425e-02,7.036378234624862671e-02
